1724 200
こと -0.4850943 0.40598476 0.033645324 0.09670993 -0.19910146 -0.105958 -0.17938416 0.46590242 -0.07331552 -0.4013754 0.19348727 -0.20946343 0.12987846 0.37576747 -0.40299344 -0.2717977 -0.18664663 0.29873982 -0.32466432 -0.72205466 0.2318979 0.30439964 0.35915044 -0.15458617 -0.15695092 -0.3187787 0.12004881 0.13798504 -0.009450051 -0.01027303 -0.5396033 -0.013068542 0.32259247 -0.22627424 -0.07478926 -0.2491081 0.14497499 0.12006458 -0.25658098 -0.42833498 -0.665819 0.017834274 0.018516805 -0.19210479 0.21183074 -0.3376875 -0.25653538 0.63792837 0.020592311 0.18005797 -0.2633959 -0.018483909 0.26843247 -0.34928453 0.25957054 -0.20793878 -0.33265004 -0.52630144 -0.5421662 -0.15801534 -0.5847414 0.34089682 -0.480249 -0.34111506 -0.5311323 0.09061691 0.06483663 -0.07896569 0.1745377 0.39679354 0.1780878 0.45421016 0.078327894 0.09146116 0.32080922 0.12954296 0.80860835 0.054128826 0.3932359 -0.14860898 -0.10625483 -0.07289498 0.29464966 0.35348484 -0.13014184 -0.48821127 0.08907298 -0.25491932 0.015659679 0.305985 -0.019162456 -0.051300697 0.14127614 0.038086258 0.33404905 0.10409437 -0.10909633 0.15050109 -0.043020397 0.12092524 0.0024008085 -0.37975055 0.052480888 0.37741607 0.10869833 -0.44151095 0.17314774 0.025258057 0.36418545 -0.119762175 -0.3868368 -0.687458 -0.35012123 -0.15134898 -0.02972553 0.13953906 0.18069771 0.53126556 -0.10209832 0.02975258 0.03952614 -0.025824703 0.046126477 -0.43986425 0.27799484 0.11549334 -0.242609 0.20573406 -0.10650707 0.06860987 0.62617624 -0.10992793 0.111358054 -0.29864246 -0.098787464 -0.037035946 0.33852628 -0.0017842777 0.6549817 0.44182748 0.788208 -0.2963436 -0.118641935 -0.010218687 0.009726643 0.24367893 -0.041341674 -0.34554166 0.3112302 0.12319022 0.0024040898 -0.39183584 0.18470505 0.22619875 -0.03167099 0.11374309 0.70854366 0.3751139 -0.30740178 -0.037424535 -0.17996743 0.35982525 -0.34145632 0.28432658 0.06429237 0.8267662 0.44482395 -0.5993537 0.24060838 0.21469189 -0.16280136 0.057765223 0.13989595 0.09251294 0.14806812 -0.15511778 -0.0777035 0.23192416 -0.06575951 -0.5572031 -0.28618866 0.09152795 0.5762476 0.11294432 0.08928625 -0.1185215 -0.47478545 0.046084557 0.15406257 -0.48710054 -0.2644038 0.041257843 0.044397842 -0.0033634142 -0.2105411 0.5144551 -0.31975707 0.05436591 -0.3681184 0.018263891
体験 0.15984666 -0.049628925 -0.11937709 -0.24573548 0.2647312 0.55797154 0.18295807 0.1435369 -0.4373627 0.47980785 -0.35390085 -0.05213386 0.40085343 0.34069526 0.2768891 -0.2615739 0.5901729 -0.09923994 -0.26623574 -0.19935732 -0.32158658 0.084282316 0.055024732 -0.25700307 0.38352558 0.007426098 0.22173625 0.055364855 -0.2959477 0.013272776 0.24080086 -0.33757657 -0.23587343 -0.20131795 -0.20731518 -0.40346417 -0.1799654 0.024274847 0.3254972 -0.38665026 -0.18069299 -0.22732472 -0.16888997 -0.26988992 0.32715383 0.13742685 -0.40845665 -0.21501775 -0.070554085 0.15010597 0.40238583 -0.19797616 -0.33608568 -0.029331256 -0.06791578 -0.119775794 -0.17557684 -0.5149873 -0.18596938 -0.30889487 -0.17430311 -0.5828443 0.56321204 -0.03508545 -0.14009945 0.9155511 0.13367847 0.07289013 -0.58807975 0.07411482 0.19597842 0.18752585 0.32314062 0.2136536 -0.3564337 0.15294051 0.32499942 -0.1687314 -0.5283689 0.28732693 0.21365908 -0.45749655 0.011788261 -0.1282446 0.057336565 -0.3817136 0.05829319 -0.3153198 0.082097255 0.03231934 -0.028987555 0.1337526 0.37420762 -0.111546695 0.2742325 0.4963879 -0.046480507 -0.022198886 0.35692105 -0.13029984 -0.32444358 0.44707516 0.17332475 0.14478678 0.17078087 -0.33651683 -0.1406093 0.10574243 -0.09095472 -0.40085694 -0.056702267 -0.16357172 -0.23235866 0.04386377 0.50455636 0.28746578 0.2541403 -0.20786309 -0.28313595 -0.04948035 0.15525626 0.010382727 0.42813855 0.22545049 0.34497 0.40832654 0.0832813 0.21267012 -0.3155364 -0.044789474 -0.19732584 -0.32738337 -0.1459596 -0.3883178 -0.34819257 0.22697657 0.1548009 -0.12136533 -0.28053102 -0.0642987 0.68629307 -0.18523687 0.12272656 -0.076310016 0.51151866 -0.29164618 -0.16190462 0.19480883 0.22894123 0.03073257 -0.07844928 -0.2857146 -0.30833307 -0.35414097 0.00219087 0.031462107 -0.34717336 0.61780083 0.06634795 0.02643799 -0.24027337 0.22870931 0.06693116 0.15661953 0.33480406 0.22533873 0.09140169 0.40025762 -0.05009731 -0.085986465 -0.016251212 0.59044456 0.09515191 0.14222045 0.06726934 -0.0136654265 0.10371916 -0.039573777 0.34323218 -0.2521104 -0.06994193 0.24609509 0.14127499 0.3500467 -0.5805303 0.0964863 -0.136056 0.58390903 0.4097219 -0.22323388 -0.26501888 -0.57310337 -0.085352235 0.18590488 0.17345732 -0.037181377 0.3258814 -0.6213378 0.08593363 -0.49190068
時間 0.2457544 0.38135105 0.11171679 0.20662059 -0.017788235 0.22902411 0.16387703 0.41147766 -0.5453871 0.4660759 0.07164239 0.084841646 -0.19766454 0.20101812 -0.4590188 -0.250955 -0.33074582 0.6083447 -0.38297305 -0.32359403 -0.27898288 -0.41066757 0.20442517 0.30031285 0.056812637 -0.2082102 0.009345028 -0.10522451 -0.8380327 -0.048867512 -0.06337057 -0.14461376 0.250267 -0.5092336 -0.14615853 -0.0130555155 -0.09841102 0.03365486 0.3100837 -0.14857265 0.050467793 -0.27590236 -0.50098884 -0.064145684 0.30952474 -0.55426794 0.17916484 0.097435705 0.4364146 -0.04149042 0.11148158 -0.011212678 0.5344452 0.5243423 0.33984166 -0.29118887 -0.19283724 -0.4885343 -0.3506398 -0.611693 0.3008963 -0.27020067 0.11356738 0.29851797 -0.38109946 -0.1542896 0.023076832 -0.033105046 0.3381012 0.4197054 -0.4126803 0.50475055 -0.45434827 0.07920599 0.29269117 -0.52581793 -0.05808085 0.17454588 -0.1414529 -0.20326601 -0.4736888 -0.13069923 0.01920903 -0.22932808 -0.092688784 -0.10395312 0.0604411 -0.14419086 -0.5960489 -0.22061019 -0.16106766 -0.1462202 0.0833852 0.04515058 0.30152026 -0.23188601 0.10453027 0.5362218 -0.28843516 -0.027832065 -0.52862316 0.10228878 0.30000508 -0.15998682 -1.0364957 -0.37186244 -0.057038322 0.1996503 -0.32592314 -0.090393476 -0.4115071 0.0040153177 -0.20896631 -0.5007365 0.184996 -0.63619757 -0.0006265357 -0.29882073 -0.05976075 -0.054966357 -0.35973206 -0.26684463 0.32010075 0.387238 -0.4907273 -0.25694305 -0.20475481 -0.023826336 -0.15125026 0.010217 0.11399895 -0.51763976 -0.24923217 -0.37906843 -0.19285828 0.2714383 0.2600913 0.0025944067 0.026749324 -0.050773293 0.43583715 -0.60049146 -0.55320245 -0.41245458 -0.041811563 0.017467353 0.18019392 -0.30747217 0.031429082 0.09876432 0.7816661 -0.20500118 -0.14285997 0.33694783 -0.22643816 0.26052558 0.19893475 0.03201969 -0.5194846 0.038508102 0.52794915 -0.21432638 0.2388217 -0.22474374 -0.087974004 0.32286623 -0.3138477 -0.07042852 -0.16315262 -0.42287108 0.25945896 0.090520725 0.20493677 -0.18462478 0.13613866 0.026698345 -0.4910916 0.117208086 0.080436 0.086612076 -0.17268409 -0.0073956563 0.20565028 -0.37306783 -0.13937281 0.13476968 -0.24822944 0.2682887 -0.3395834 -0.057961203 0.33796507 0.021670887 -0.30192304 0.6129937 0.21711549 -0.4983463 -0.1278255 -0.20232306 0.48501483 -0.8805892
じゃらん 0.28678846 0.06070051 0.11890989 0.019544456 0.06635883 0.4615624 0.10175158 0.7125281 -0.4086019 0.06461221 -0.087140456 -0.22029717 0.3451936 0.6640588 0.069346316 -0.33603808 0.53186613 -0.29323828 -0.11374532 -0.28035775 0.021632815 -0.18002255 0.424323 -0.08106646 0.025505641 0.12557855 0.0069080405 -0.14744404 -0.1591865 -0.060234793 0.13275786 -0.20045783 -0.054737568 0.22640494 -0.47438514 -0.49947467 -0.17081766 -0.35239828 -0.3242021 -0.530064 0.32592118 -0.14582628 0.3480914 -0.64994454 0.23720726 0.34800294 -0.493516 -0.6236149 0.06209247 0.17240798 0.4918885 -0.1815829 -0.38290974 0.23270248 -0.13747616 -0.38825402 -0.0014518956 -0.6114319 -0.13016362 -0.30789748 -0.01855828 -0.30701953 0.36729023 -0.4148162 0.1756043 0.45080838 -0.25189358 -0.064357825 -0.6806909 -0.012480465 -0.0011717974 0.13747412 -0.0137421535 -0.025782404 0.16544177 -0.17816503 0.052394323 0.16710061 -0.37031603 0.42594025 0.47515136 -0.57131344 -0.28727537 -0.08000575 -0.113037206 -0.5486137 0.038811903 -0.19871728 -0.18255901 0.04540146 -0.22280464 0.08406477 0.22096078 -0.019310156 0.14687781 0.11725539 0.093833484 -0.09184997 0.0896222 -0.108680405 -0.28518593 0.32424873 0.24597806 0.13993673 0.07119733 -0.17793822 0.27915826 0.054767806 -0.29749435 -0.6422772 0.009403947 -0.21459836 0.1446032 -0.06637114 0.30960944 0.038216803 0.13962394 -0.098634444 -0.6150533 -0.3424551 0.16259539 0.03586357 0.2261753 -0.4051057 0.07350171 0.23525934 -0.011940636 0.37982714 -0.23471107 0.16437724 -0.22291441 0.14455831 -0.18288983 -0.47828233 -0.23687245 0.16859926 -0.054415926 -0.31960535 -0.24692047 -0.009053198 0.59106785 0.014852419 -0.17686081 0.099519126 0.12569565 -0.4195555 -0.40747908 0.15142421 0.4199869 0.2921978 -0.030882949 -0.20802356 -0.029078817 -0.48946956 -0.15276235 0.28862286 -0.188356 0.25337481 -0.04677198 0.1115983 0.31417698 0.18397985 0.08847194 0.1822601 0.1776273 -0.078490384 -0.3638825 0.73068213 0.010698852 0.13436893 -0.10055448 0.5797842 0.33354267 -0.12174464 0.26716414 -0.27715546 0.16217028 -0.030217087 0.36046815 -0.4161279 -0.19496134 0.12748991 -0.15088618 0.37075675 -0.18955876 0.12420905 -0.20409405 0.6066897 0.66942096 -0.21973993 -0.06829109 -0.48541513 -0.51598614 0.39653906 0.33876884 0.06063797 0.0951689 -0.39364454 0.34547618 -0.1625286
net 0.055983983 0.20194732 0.006200104 -0.0510621 0.18276294 0.50647855 0.38470185 0.31485006 -0.3535119 0.24675508 -0.19574295 -0.1170099 0.62811655 0.34459454 0.19311342 -0.15982231 0.22171715 -0.41386926 -0.22093803 -0.07732682 -0.0024979208 -0.031343386 0.24210525 -0.25433648 0.18229385 0.061560005 -0.1079227 0.059360344 -0.07698455 0.06421289 0.3192281 -0.42865524 0.06500256 -0.006164694 -0.5476009 -0.5105461 -0.26737574 -0.3008357 -0.31536242 -0.46573824 0.1363434 -0.16857779 0.055226695 -0.39802328 0.30822766 0.14455284 -0.34109858 -0.52447754 -0.106204 0.12759435 0.464543 -0.11666817 -0.52078575 0.16657941 -0.07969717 -0.53147435 0.19336696 -0.69516283 0.18458158 -0.30973795 -0.24284486 -0.2401349 0.77445114 -0.39729828 -0.22110274 0.28126186 -0.22465079 0.0025451244 -0.53399444 0.2716147 0.10105688 0.11496211 0.009740342 0.19837949 0.045412794 -0.39873812 -0.17623422 -0.16401589 -0.34552068 0.29216647 0.5898349 -0.79911166 -0.108601294 0.04112576 -0.14905682 -0.33529827 0.08637632 -0.06019214 -0.103840835 0.13239539 -0.38357002 -0.017405802 0.42426074 0.024044257 0.20467319 0.49035135 -0.038323764 -0.046202444 0.29544216 0.1121904 -0.3116467 0.21291518 0.16098085 0.2499445 -0.06295544 -0.28066832 -0.088767394 0.3173001 -0.3402542 -0.561418 0.049538564 -0.10088806 0.3789616 0.102953 0.1611471 0.3875417 0.3698269 -0.43369517 -0.26016527 -0.5040287 0.09195246 0.16370305 0.11243213 -0.092620105 0.5764659 0.16483091 -0.24567717 0.38599658 -0.2732642 -0.0999385 -0.09227914 -0.050198738 -0.31696197 -0.5484015 -0.5085072 0.65228814 -0.12191995 -0.1132898 -0.15586634 0.0123553 0.83168024 0.077786915 -0.06886051 0.07010628 0.060220435 -0.3484115 -0.50996107 0.112139985 0.39248976 0.25884008 -0.094974175 -0.116480544 -0.2929347 -0.17981495 -0.02226961 0.020016832 -0.07636105 0.3264192 0.14551109 0.041528646 0.19039792 0.389117 0.2546893 0.1749244 0.15956104 0.020360222 -0.1610563 0.23028123 0.024274979 0.3769101 0.12583108 0.41631222 0.39017117 -0.14225268 0.40495044 -0.2714545 0.27607313 -0.13624063 0.49659133 -0.1619918 0.5017363 0.19564776 0.124414586 0.46654826 -0.020407751 0.060713716 -0.2913365 0.65210575 0.70702267 0.20416807 -0.24841571 -0.5711685 -0.4972499 0.5146013 0.39165837 -0.052557524 -0.061476633 -0.23333459 0.48548245 -0.27343094
福岡 0.20494384 0.06140648 0.25122932 -0.23845442 0.22060457 -0.11781917 -0.50468206 0.6568755 -0.29495987 0.2012423 -0.00035800255 -0.454094 0.30811882 -0.19338067 -0.4550212 -0.074395224 -0.07917643 0.065410584 0.5521395 -0.2027766 0.0095700305 0.19099776 0.18203796 0.04745867 0.23906256 -0.6589451 0.1254274 0.21069714 0.3050067 0.113236636 -0.1613197 -0.13548341 0.86078197 0.39560273 0.59546 0.5742055 -0.06908159 0.30744642 -0.21226428 0.18949164 0.053232737 -0.07487033 -0.19037428 0.20502777 -0.004522912 -0.33469826 -0.3560588 -0.009642712 -0.18635756 -0.0013290435 -0.5085376 0.5228486 -0.16620836 0.044754896 0.2577023 -0.6129206 -0.0135196 0.13591488 0.4627129 0.513105 -0.51303405 -0.012882262 0.22117333 0.37278923 -0.39119503 0.019013003 -0.24135435 -0.34691322 0.36355308 -0.20184958 0.38863045 0.33760595 0.06107982 0.26699147 -0.16514434 0.04567209 0.4136064 -0.37140545 -0.76381344 0.059604138 0.18718623 0.40703505 -0.35966688 0.4648367 -0.39708412 -0.09030481 0.33794883 0.29586205 0.53447545 0.111987494 0.59116733 -0.021958822 -0.20354602 -0.010947763 -0.49672964 0.43464854 0.44932178 0.009645789 0.19341895 -0.7038217 0.09345852 0.08803426 0.104770474 0.33710226 0.011636315 -0.03692859 -0.26529413 0.1536882 -0.14171289 -0.23267275 -0.43575898 0.14252785 -0.4399309 -0.34985903 0.4145589 -0.5215377 -0.17766234 -0.5981648 -0.4346968 -0.23123582 0.02144055 -0.44003373 0.15261093 -0.41409642 -0.5548476 -0.24672472 -0.5424587 0.5755975 0.3716766 0.2792381 0.19327895 -0.49867195 0.5182146 0.06695196 -0.27293742 -0.06701023 -0.041185394 0.2319271 -0.56163794 -0.3169519 -0.18730918 -0.021098178 0.4157102 0.13285816 -0.31576663 -0.047417246 0.3564361 -0.27877226 0.030151559 0.56315136 0.011465629 -0.23435067 0.2752645 0.18165013 -0.5056933 0.47891876 0.17330348 0.1056368 0.23484318 0.30618572 -0.11590806 -0.03277195 -0.06562404 -0.5503359 -0.10353101 -0.015426354 0.73764884 0.16882285 -0.52655643 0.54798746 0.01816278 0.4452018 0.3896003 0.30647123 0.36195555 0.49425432 -0.24629267 0.47988752 -0.22334088 -0.5869051 -0.43231493 0.2492159 -0.28027356 0.0027963212 -0.122476004 0.3553972 -0.942088 -0.20867154 1.3748652 0.18719979 0.024001572 0.040413316 0.11793171 0.38417116 -0.07584214 0.344853 -0.40773344 -0.3079128 -0.0368374 -0.040594857
場所 0.45072654 -0.19807893 0.5830498 -0.6222197 0.55828035 0.39534715 -0.09865265 0.60669726 0.028445361 0.022633739 -0.13841417 -0.29360673 -0.24947725 -0.41137052 -0.4564975 0.048976086 0.10501175 0.5015665 0.39491963 -0.19247809 0.1031852 -0.48520604 0.03213968 0.016789967 -0.060697105 0.74993676 -0.012644834 0.12492087 -0.37450463 0.14134854 -0.441976 -0.28167024 0.07113698 0.14698604 0.5206592 -0.45310447 -0.26318723 -0.29479054 -0.01970238 0.004951332 -0.6791133 0.35573375 0.37877262 0.009292167 -0.55195457 -0.5253178 -0.4348161 -0.22632414 0.026972951 0.29023656 0.538619 -0.40414935 0.46947873 -0.6134276 0.23315187 0.07120799 -0.034199927 0.1833553 0.0021362759 0.11173067 0.0906666 0.28542525 -0.24935205 0.4006304 -0.13025591 -0.27823767 0.055715363 -0.076365575 -0.044333003 0.27334118 0.016741911 0.22615755 0.61233336 -0.030926641 -0.14171065 0.17169476 0.043059837 -0.65493387 -0.99738467 0.4674514 -1.2524178 -0.16502902 0.020181233 0.7302259 -0.5722131 -0.06960646 -0.10092243 -0.06833532 -0.38598287 0.11889222 0.17502265 -0.2963117 0.26634502 -0.8925871 0.38409796 0.17292069 0.19324796 0.7217406 0.23619825 0.09452479 -0.45616198 0.5812503 -0.3975637 -0.032932747 -0.36020505 -0.08961552 -0.5225629 -0.6071237 -0.20345825 -0.28383037 -0.28688586 0.28469425 -0.4474101 -0.20508935 0.3726748 0.19462767 0.34489092 0.28426886 -0.44607335 -0.21656142 0.38996854 0.2100275 0.19782275 -0.24545652 0.14146511 0.7580895 -0.12231601 -0.048650846 -0.22971852 -0.16380924 0.21462971 -0.003686089 0.4862688 -0.13026232 0.4545397 0.036010038 -0.6741487 0.4147766 -0.22350822 -0.05073848 0.4437535 0.1962609 0.5045281 0.1750485 -0.05343448 -0.23296261 -0.5081252 -0.22361335 -0.06344081 0.51905304 -0.16050945 0.076888815 0.057876855 0.34806412 -0.066997625 0.2891791 0.33257464 -0.3779512 -0.07481396 0.35280228 0.18774128 0.24783264 -0.5905693 0.22441429 0.67916423 -0.17803779 0.33863577 0.27967724 0.006084551 0.08141657 -0.28705457 -0.36050656 -0.062793545 -0.17272979 0.46337754 0.586279 -0.12507273 -0.3388434 0.3433123 0.46626127 0.13225609 -0.4591961 0.6136313 0.34069732 0.043178014 0.2306125 0.19325472 0.29995236 0.2726686 -0.09616942 0.94181776 0.04396243 -0.21479245 -0.24674536 0.262219 -0.3013474 0.2651058 -0.20622876 0.23363002 -0.008265618
観光 0.50695086 0.62009954 0.016458798 -0.511482 0.49830326 -0.46171343 0.08585709 0.4860075 0.46302667 -0.4182962 0.61555624 -0.63895303 -0.46013114 0.18173227 -0.4306254 0.122605816 0.43190876 -0.25855225 0.75374657 -0.5950516 0.5945066 -0.21682478 -0.6034706 -0.31651795 -0.1362299 -0.15241012 -0.14834915 0.18965927 -0.1066456 -0.12174145 -0.49577025 -0.17626359 0.2090604 -0.26499933 -0.049419593 -0.5192242 0.19734365 0.25420722 0.1899409 -0.12035118 0.21935496 -0.260068 0.10131797 0.6464906 0.28530005 0.2857951 -0.10279613 0.10016751 0.30377713 0.38258743 -0.04501218 -0.1257531 0.28259623 -0.27307472 0.025473552 -0.08284099 0.07738656 0.020052802 0.06536521 0.49973777 -0.7502437 -0.11473137 0.17549711 -0.06904583 -0.0696185 0.23404486 0.00912982 0.16639104 0.050818246 0.2942214 -0.37612107 -0.24564633 0.21341811 0.14721072 0.04748188 -0.24639073 0.28674644 -0.19204387 -0.134681 -0.09652334 -0.49507082 0.21279557 0.24267763 -0.07283204 0.13809583 0.44850013 0.6139138 0.8969548 -0.5104596 -0.015985938 0.10793925 0.014420164 0.47401425 0.7934239 0.75575596 0.3250891 -0.2813 0.109673314 -0.3448891 0.051003154 -0.3204656 0.21766335 0.3694064 0.18788125 -0.6484041 0.0888855 -0.2231494 0.09407264 -0.08181669 0.32990742 -0.2701492 -0.55877805 -0.34978408 0.15229203 0.036762115 -0.02432297 -0.3741838 -0.26907322 0.10274154 -0.08304069 -0.23366179 0.13893138 0.2169067 -0.16102177 -0.100615405 -0.10912232 -0.118609264 -0.00019178794 -0.5049464 -0.66373855 -0.12968244 -0.58995634 -0.18890306 0.066462606 -0.35308307 0.086804055 0.046633635 -0.451964 -0.59644514 -0.2319489 -0.13196145 -0.0664374 0.33698547 0.0656326 -0.087769106 0.686793 -0.63110083 -0.16806771 0.27205074 0.12498014 -0.12557472 0.30043197 0.29623047 0.29759967 -0.4942537 0.59896153 0.5801121 0.24375348 0.08084141 -0.0040919455 0.13226514 -0.08356111 -0.087022215 -0.114434555 0.28784353 -0.6282655 -0.089783445 -0.091798134 -0.077044986 0.031022571 -0.5642996 0.37961954 0.35396138 -0.21121968 0.5161877 0.1084721 -0.33875415 0.013142777 0.43430206 -0.23104464 -0.5772212 -0.2035544 0.2051736 0.13550766 -0.4144487 -0.13140132 -0.089210704 -0.028601553 0.47106832 0.18568261 0.5944746 0.16899447 -0.027818065 -0.19007586 -0.36274192 0.5945094 0.0130520025 0.2591313 0.3356359 -0.21022193
子供 -0.5198546 -0.35412326 0.12629955 -0.31126535 0.5805154 0.3290822 0.037653122 0.8613553 0.03620269 -0.484685 -0.3794242 -0.006295714 0.08044513 0.5043036 -0.3127025 0.15868916 -0.50901854 -0.06979273 -0.10237845 -0.71786314 0.12191268 -0.06062735 0.31267673 0.039613295 -0.12841234 0.967643 0.01098107 -0.023028363 0.251831 0.22333829 0.19919394 -0.02799834 0.11004154 -0.6167485 -0.06682352 -0.15417352 -0.021109175 0.40205795 -0.19808187 -0.5907201 -0.21808676 0.065178104 -0.4105264 0.49232554 0.38528866 0.18117437 -0.68277353 -0.25987968 0.43629014 -0.20782238 -0.32965824 -0.51411813 -0.062621035 -0.021456268 -0.15328334 -0.27447546 -0.065494195 -0.7176041 -0.49807346 -0.22926426 -0.21997198 -0.18432944 -0.14960116 -0.33769077 -0.3983035 -0.5587817 -0.4178969 0.4811939 -0.0053752693 0.17327408 -0.23527798 0.3571794 0.01919136 0.2319295 -0.17493871 0.29332596 0.23347048 0.21046533 0.14837171 -0.29392922 -0.0347045 -0.1973155 -0.01107117 -0.10493613 -0.5403548 -0.09301969 -0.48711196 -0.100039355 -0.18432356 -0.19336018 -0.1070574 0.22463062 0.39670655 0.3236585 0.25071418 0.5902212 -0.37946224 -0.25762358 0.20464571 -0.06909488 0.30350727 0.34119123 0.4115697 -0.57731086 -0.18549302 -0.46233147 0.13794565 -0.29690585 -0.6793963 -0.22711602 0.17301464 -0.5378585 0.26154208 -0.035360586 0.61243093 -0.28785187 0.65325665 0.20378625 0.22758642 -0.10284033 0.31994352 -0.19670068 0.14024685 -0.08751962 0.3197068 0.090481095 -0.25952536 -0.6345684 -0.046091206 0.15622081 -0.39515865 0.39054966 -0.21070264 -0.06904745 0.42348376 0.2903046 -0.16362941 0.42003065 0.35739744 -0.047358602 0.21395475 -0.54589874 -0.10420892 0.5913781 0.026666168 0.14838372 0.11138602 -0.09591726 -0.28339314 0.4223677 0.5091661 0.008220596 -0.06446622 -0.22867267 0.45192042 0.2896327 -0.11317567 -0.21149784 0.42401522 0.3556567 -0.19507058 0.24899735 -0.10847175 -0.0851263 0.45714027 -0.28176084 0.18347831 0.3940906 0.26862717 -0.24388847 -0.0417213 -0.05914322 0.20472912 0.4199815 0.07773215 -0.12621418 0.16163091 0.11655828 0.42887658 0.65058863 0.087057486 0.2687164 0.35816133 -0.7414827 0.3225674 0.33312306 0.7993896 0.3623913 0.5588556 -0.29474705 0.11769799 0.19626369 0.34201762 -0.13374011 0.6922806 0.09833841 -0.09933214 -0.06864308 0.8282696 -0.25208855
神社 0.65133125 -0.57827544 -0.5255423 -0.21038088 0.11082596 -0.09837288 -0.07837686 0.4534734 -0.24876799 -0.08400325 0.046106365 -0.02916333 -0.037730757 0.36325482 0.110778846 -0.28844008 -0.3661014 0.48485443 0.3242326 -0.17477754 0.24363166 -0.79389596 -0.68749726 0.010023652 -0.14312395 -0.24113367 0.17208093 -0.11793001 -0.061442904 0.016028866 0.19161677 0.4046603 0.7299157 -0.54866976 0.008517793 0.008938905 0.063451864 0.016363608 0.13473092 -0.22629407 -0.16921042 -0.46522057 -0.21116838 0.47356543 0.1299906 -0.23370874 -0.25759614 0.39387977 0.52758944 0.1988165 -0.31456897 -0.062285 -0.1018814 0.16779731 0.03871911 0.30366087 -0.071487844 0.3160328 0.25404614 0.556316 -0.44576585 -0.20648833 0.0038152812 -0.019058896 -0.4187288 0.51034445 0.3086274 0.47976056 0.036071613 0.5959517 0.19450842 -0.48695153 0.47154093 0.28263605 1.3449135 -0.19989112 -0.030712178 0.27247748 -0.24930525 -0.09092888 -0.3021593 0.41092068 0.041095585 0.052200194 -0.13446072 -0.16376694 -0.21335255 0.20838177 0.24393244 -0.100211576 0.07537048 0.16859302 0.5182886 0.31727257 0.84045774 -0.22446911 0.2741475 -0.025783647 0.066312395 0.1749723 0.059815675 0.00179404 0.013250183 0.33101693 -0.78524643 -0.23472084 0.343727 -0.2072592 0.048229262 -0.9916919 0.15195136 0.06655591 -0.042863127 -0.06781858 0.11351465 0.007246098 0.027642466 -0.00072610896 -0.42172486 0.10909359 -0.2710483 0.50194263 -0.2755567 -0.16309544 -0.38588548 0.09723682 -0.22398795 -0.5836871 -0.04984489 0.73326445 -0.04178659 -0.25748742 -0.46390507 -0.04438016 -0.6708856 0.11420667 -0.08172613 0.055775397 -0.13450328 -0.4228187 0.37875482 0.3538054 -0.3249899 0.8653333 -0.13946576 -0.5784602 -0.26919252 -0.283395 0.23623882 0.07238855 -0.62126756 -0.35421222 -0.52270126 0.2442629 -0.17853406 0.43652722 0.49072698 0.19803518 0.40001234 0.053543285 0.39156303 -0.15624125 0.09631997 -0.0061795968 0.14235748 1.0045131 0.33769727 -0.14738303 -0.0046333647 0.19298005 -0.26827917 0.40033072 0.7694419 -0.51672184 0.29751486 0.10613051 -0.0154672805 0.6947531 -0.22488235 -0.26723105 0.0672594 -0.13416515 -0.016641036 0.086811595 0.29031533 0.47290146 -0.0054411115 -0.302195 0.1207153 -0.14822717 -0.074955985 -0.4002532 -0.5000506 -0.48073918 0.083192125 -0.95439774 -0.34193006 -0.039509658 0.24025063 0.43643403
ない 0.21590784 0.24554849 0.12677424 0.4542968 0.6178325 -0.061991315 -0.23010802 0.384047 -0.2719912 -0.077567056 -0.046960756 0.0919269 0.61725295 0.09495582 0.16949376 -0.42188048 -0.11793982 0.24120834 -0.4020594 -0.06297651 -0.14125252 0.2626184 -0.3675852 0.31817016 -0.3318696 0.25598907 -0.4526729 0.010562394 -0.2663159 0.07402765 0.4652541 -0.6621485 0.008127307 0.3460349 -0.052896194 -0.395311 0.16670184 1.051409 -0.06938473 -0.19426061 0.2343951 -0.28107455 -0.37875068 0.49194154 0.093800984 -0.40034235 -0.7408805 0.08017789 0.09598023 -0.29366696 0.2381508 -0.38257754 0.19979517 -0.111430265 -0.5384905 0.14172713 0.12471015 0.059215825 -0.8404555 -0.24351922 0.06965532 -0.10981855 0.52924776 -0.21818088 -0.969776 0.42661083 -0.21692324 -0.26472107 0.1785336 0.2812241 0.019109553 0.3588911 -0.081005685 -0.62151206 0.21946138 0.6612277 0.19530979 0.010642084 -0.5827514 -0.119870245 -0.4833259 0.07643639 -0.47313198 0.48842746 -0.9160953 0.008540636 -0.02387715 0.0436411 -0.17345692 0.5585767 0.3137963 0.7963428 -0.37251464 0.21936801 0.29358405 -0.24078909 0.17987385 -0.1479487 -0.3942877 -0.20208909 0.045273222 0.34869555 0.28671148 0.5066243 -0.839147 0.28150523 -0.5590718 -0.1914285 -0.02780548 0.1484498 0.017117037 0.14571315 -0.082639 -0.047627036 -0.45368636 -0.11459532 -0.069598794 -0.027693579 -0.71308804 -0.12582749 -0.08871527 -0.62180823 0.03970099 0.3915357 0.33603647 0.7024344 -0.013078754 -0.25026917 0.1942471 -0.17825483 -0.011897578 -0.30488425 0.8638151 -0.8911499 0.19401614 -0.48928022 0.0063022324 -0.2550608 0.18458645 -0.021101713 0.32375398 -0.026681114 0.5447513 -0.13145201 -0.31873113 -0.19377895 -0.3178785 -0.012301988 -0.5832848 0.059425753 -0.27881858 -0.2992426 0.015872145 0.5502681 -0.35398954 -0.389517 -0.24764478 -0.3241333 -0.07904988 -0.22545218 0.25541833 0.61846775 -0.6989635 -0.040997982 0.6802605 0.24815439 0.1603542 0.26396602 -0.020949526 -0.029965166 0.56764185 0.6275434 0.09777316 -0.4022763 0.5543971 -0.3161979 -0.11386285 0.67507595 0.021313861 0.159474 -0.18228985 0.21344002 -0.1416581 0.18978079 -0.20849247 0.013649967 0.11388698 -0.3728747 0.36129084 0.15892945 0.47707635 -0.47570133 -0.12861487 0.11330099 0.05478781 0.32908377 0.046255887 0.5054555 -0.1698005 0.054538123
いい -0.13226871 -0.24926089 -0.39549997 0.6567405 -0.015318833 -0.11167282 0.32802248 0.59561634 -0.16498384 -0.65560156 -0.528887 -0.414533 -0.13735119 0.007865439 0.028434573 0.3143811 0.21795395 0.26954424 -0.12055469 -0.32655758 -0.1204325 0.29120126 -0.21938835 0.54568636 0.3119803 0.011477466 -0.30061743 0.6903242 -0.07385529 0.20007877 -0.022320341 0.4374061 0.30620316 -0.5033337 -0.32065633 0.050807104 0.7266794 0.08067755 -0.42999095 0.223606 0.2881591 -0.098122954 -0.14465019 0.28465635 -0.15922013 -0.22897735 0.06372226 -0.16143131 0.13361293 0.023970513 -0.10113315 -0.7995754 -0.17349473 0.25619793 -0.13466243 0.4185621 -0.34216717 -0.21977635 -0.20262419 -0.25103924 -0.3512148 -0.45418438 0.44470635 -0.56881386 0.03627515 -0.33458346 0.25974715 -0.1334389 -0.23639883 -0.08101601 -0.18774495 -0.16411087 0.36953312 -0.03165905 -0.3102514 -0.17870171 -0.40236714 -0.09974671 0.07828444 0.10496342 -0.7852909 0.42147085 0.37025318 -0.38001138 0.0036424578 0.08885963 0.45867127 0.3674695 -0.14090483 -0.13053583 -0.115805484 -0.034210883 -0.05008239 0.088803455 0.11184419 -0.41784635 0.5833543 -0.08318546 0.75348616 0.47123247 -0.81041723 -0.36199883 0.6869982 -0.09946927 -0.45967653 -0.093954176 -0.6162887 0.23202302 0.9866499 0.37348142 0.09782547 -0.6718999 -0.36192 0.010328173 0.59184617 -0.09516271 -0.044106387 -0.7859594 0.255404 -0.26070192 0.35097176 0.10288569 0.037271246 -0.37807742 0.076786414 0.16054153 -0.062408384 0.014089339 0.4706364 -0.12924764 0.40927452 0.22290769 -0.3989408 -0.7129379 -0.043296486 -0.5607943 0.5160039 0.19698784 -0.49357596 0.4566899 0.60518205 -0.23021352 -0.0938007 -0.44444066 -0.27648556 0.03429961 -0.22214253 0.03574336 -0.5933159 0.30730253 0.50065756 -0.4442037 0.06771256 0.33209363 -0.27094185 0.562633 0.029961746 0.41924173 -0.08888059 0.5239838 -0.10081287 0.60457414 0.3527409 -0.009777308 0.09715358 0.49402928 0.97881955 -0.063103646 0.093262136 0.14367354 -0.023295565 0.08141961 0.07981045 -0.1417419 0.39682207 -0.14361058 -0.25976834 -0.123013034 -0.643394 0.19885947 -0.58486503 0.23919736 0.31221566 0.439258 -0.39862773 0.7312659 -0.047250707 0.48022297 0.08135073 0.28965124 -0.058564235 -0.45371297 -0.48297307 -0.6990871 0.75265753 0.438333 0.7301023 -0.5662764 -0.24123374 0.07328778
博多 0.23194967 0.13587508 -0.25655755 0.2425917 -0.048724916 -0.8568182 0.7201859 0.47547132 -0.71139306 -0.115278535 0.3436851 0.36814004 -0.19566506 0.48681936 0.11984482 0.2134343 0.25243428 0.25663495 0.30426747 -0.10136662 0.122586176 0.6235229 -0.9292348 -0.14736156 0.23340848 -0.40668714 -0.19838606 -0.62346715 -0.031676803 0.22164199 0.25203845 0.41660222 0.34030432 0.1015276 0.14156707 -0.17085174 0.5972835 -0.5395233 0.15200874 -0.4914506 0.09530962 0.20130749 -0.22255082 0.016818272 0.24127667 -0.20764525 -0.13980465 0.057912525 0.33510777 -0.34914422 0.37559408 0.4117227 0.3288216 0.27939153 -0.026156245 0.20045324 0.23966396 0.49040923 0.17348696 0.67713153 0.41479832 0.10641562 -0.6397754 0.22619668 -0.39157802 -0.3124592 0.2524304 -0.023079703 -0.8301454 0.35448018 -0.20201251 -0.4208673 0.16660684 0.16520372 0.3342288 -0.08374475 0.01613336 0.2339011 -0.5654768 0.4529991 -0.014893076 0.17334259 -0.3551447 0.64180654 -0.15203469 0.17886636 -0.2951782 0.9746455 0.48472482 0.62852925 0.26953334 -0.053880986 0.18986899 0.16159825 0.36108854 -0.10500091 0.11946417 -0.21798702 0.30771968 -0.4274874 0.20143946 0.8221352 0.22508441 -0.45228717 -0.1643448 0.21711634 -0.23518097 0.6251681 0.008752104 0.20798233 -0.3395889 0.17214605 0.43488938 -0.035232723 -0.34629443 0.69255316 0.2875587 0.15064752 -0.16176797 -0.37938428 -0.7958029 -0.1301278 -0.0055210483 -0.70529944 -0.36387768 -0.009901234 -0.23449127 0.102226585 0.015399537 -0.24741977 -0.118193544 -0.4870704 0.0111748725 -0.72273153 -0.065213345 0.5829435 -0.16498953 -0.36391336 -0.1928847 -0.14158338 0.29053304 -0.57714933 0.044477824 0.21278232 0.17401797 -0.26505715 -0.26841393 0.040341597 0.1429748 -0.10410024 -0.23998156 0.31753966 -0.65897053 -0.18986504 0.104948156 0.6235709 0.29381803 -0.09561451 -0.41578352 0.21729445 0.4851428 0.40829745 0.013914989 0.14656483 0.25499278 0.2155418 0.21967751 -0.4759969 -0.7615366 0.31885302 -0.5995875 0.3091026 -0.21974248 0.24154483 0.25075465 -0.028803939 -0.43042254 0.30100077 0.18304998 0.054108217 -0.013323736 0.69877446 0.23853816 -0.011519911 -0.19162773 -0.041365623 0.038851984 0.4330896 0.40765575 -0.17841882 0.53054184 0.22190946 -0.28868857 -0.31424743 0.24788812 -0.09512026 -0.60525876 0.54289573 -0.49767894 0.2046329
良い 0.22911847 0.18946253 -0.57594156 0.35681677 0.72657436 0.73117024 0.5434158 0.2299908 -0.37315148 0.47344968 -0.27552944 0.18006 0.21476226 -0.067666255 -0.23310292 -0.32818672 0.19172817 -0.24916501 0.019915449 -0.6397028 0.35231414 0.013700219 0.4285907 -0.08531691 -0.59478253 0.3255883 -0.4051302 0.32182127 -0.17023759 0.40549785 0.14782451 -0.26284772 -0.37029117 -0.015682394 -0.41503432 -0.019851748 -0.17055093 -0.05970606 -0.15403174 0.028222745 0.12455236 -0.016512431 -0.36563578 -0.21713595 -0.23262237 -0.0010746067 0.38388148 -0.3107346 0.74612427 -0.22759798 0.3887656 0.6996512 0.19254652 -0.26629665 0.38032213 0.12955691 -0.15840566 -0.13672565 -0.39481723 -0.20375873 -0.050710704 -0.311939 0.24390791 0.008224281 -0.5426051 0.30751377 0.3606985 0.3958361 -0.4470687 0.1957647 -0.51915693 -0.81885505 0.56870914 -0.0383105 0.051010553 -0.20750153 0.20768046 0.12839608 -0.19192812 0.19561757 0.18158911 -0.052568585 -0.5985219 0.23753737 0.09369137 -0.33166713 -0.3605025 0.41621488 0.18318169 0.24910074 0.0061979187 -0.34016204 0.014404375 -0.00011580361 -0.074827276 -0.14582485 0.2207683 0.019901095 0.08303482 0.07499596 0.3117909 0.60377234 0.06219999 0.20734225 0.2160503 0.070441395 0.11928767 -0.60899204 0.71890354 0.25169158 0.11268922 -0.27643433 -0.14408916 -0.6061064 0.2810897 -0.45160896 0.24106821 -0.7662015 -0.52007234 -0.41758025 0.063230045 -0.108070984 0.35190603 0.37918553 -0.05695875 -0.43620017 -0.373646 0.09506112 -0.004128422 -0.5761006 0.38010395 -0.29513898 -0.31675065 -0.4449369 -0.01778744 -0.10835215 -0.07414913 0.42563543 0.16268966 -0.6592632 -0.32600808 -0.5613378 -0.3338424 -0.48730204 -0.12626046 0.5737845 -0.32367322 0.0075368294 -0.3417716 0.57438886 0.16314664 -0.40021816 0.28619313 -0.6777959 -0.05842445 -0.2499629 0.7868663 -0.18759051 0.4116708 0.74133784 -0.09603051 0.029626014 -0.33880675 -0.1897302 -0.025835373 0.028431742 -0.16886064 -0.18895818 -0.278482 -0.07106914 -0.307626 0.22428869 0.13509099 -0.53766704 0.5690317 -0.2379969 0.18605386 0.51038605 0.43459687 -0.37980834 0.3773246 -0.44152448 0.38263008 0.3506967 0.43828183 -0.19985826 0.2585055 -0.39617813 1.1314168 0.30081278 0.054545417 0.30039057 -0.17325433 -0.6607761 0.8763896 0.2924556 0.6659783 0.58966553 -0.07148033 -0.45584032
利用 0.23191945 0.14460833 -0.6658378 0.3296294 0.1448274 0.10940764 0.1130161 0.15088816 -0.2591023 -0.2942464 -0.03570947 -0.46059647 -0.119801946 0.26158 -1.0108529 0.3023752 0.420642 0.0953271 0.2317816 0.058146082 0.82602745 -0.13094969 0.3566619 0.3347985 -0.08459573 -0.46602303 0.11457062 -0.269916 -0.19335724 0.5440426 0.80595237 0.2571877 0.76169807 -0.20550695 -0.25694895 0.53317523 -0.268905 -0.35701227 -0.45027015 -0.1956304 -0.31261763 0.22284058 0.13319266 -0.13837092 0.5312394 -0.39819658 -0.43396306 -0.35390824 -0.1412784 0.0952991 -0.26925758 -0.48645678 -0.4256988 -0.007466885 -0.3632735 -0.49580425 -0.35137308 0.15116389 -0.9438643 0.10326768 -0.15170778 -0.57620966 -0.24322525 -0.09740298 0.32354903 0.3508211 -0.41807723 -0.29127234 0.076939456 0.37239617 -0.5703913 -0.070886545 0.17755328 0.4615668 0.18043838 0.11546931 0.27502298 0.3794112 -0.56560636 0.5304932 0.12860322 -0.92786413 -0.41748884 -0.006707503 -0.33269238 -0.13777563 0.5589254 0.29824385 -0.27212584 0.16961354 -0.050785206 0.71229833 0.50058943 -0.36676803 0.3894449 -0.2930712 0.09217629 -0.39415586 0.59646887 0.14464374 -0.03313317 -0.052657463 -0.0335971 0.18648092 0.29603404 0.100266896 -0.11316421 0.13711424 -0.4512634 -0.05120627 -0.2767464 -0.34720364 0.34975463 0.77739614 -0.075179204 -0.94384056 0.7596328 -0.55489784 -0.12987691 0.15883292 0.04936167 0.10919944 -0.18996531 0.20143716 0.41540822 0.028530508 0.16724207 -0.17823355 0.47874492 0.021080006 -0.32254538 0.02634153 -0.73759466 -0.23341967 0.39270103 -0.24869518 0.13933468 -0.38484553 -0.016835509 0.062792994 -0.17884347 -0.34361818 0.52902293 0.3452899 -0.5434266 0.4893471 -0.6294334 -0.014253698 -0.34280527 -0.06070997 0.05816397 0.037225094 -0.58420503 0.2976807 0.18833335 -0.24384557 -0.6107139 -0.00956445 0.3286127 0.19898488 0.14539967 -0.057071675 -0.04372913 0.026004115 -0.10361164 0.40473738 -0.26136485 0.112992644 0.010592198 0.56891805 0.51015294 0.75202876 -0.07246974 -0.6385556 -0.16630273 -0.13732141 0.006404865 0.32355738 0.41160604 -0.35778403 -0.008210878 -0.07850702 -0.07992382 -0.10322771 0.031779367 0.6744707 0.031970453 0.28431374 0.33303842 -0.24982363 0.24880543 0.2909118 0.08479495 0.2930423 0.409859 0.22247002 -0.46754634 -0.5853337 0.03051485 -0.8100609
良かっ -0.26636937 0.5424275 0.5641005 0.3664149 -0.10566841 -0.26748335 -0.18939787 0.30264476 -0.32696387 -0.049223077 0.021820053 -0.53588754 0.147788 -0.63157266 -0.087361015 -0.33913514 -0.38500467 -0.40904188 0.11503069 0.27672225 -0.08356167 0.0026654133 0.11295356 -0.4598642 0.14636688 -0.075090975 -0.5248687 -0.9572296 -0.645654 0.3013761 -0.04787124 -0.16700962 0.4194585 -0.028173385 -0.05433564 -0.448627 0.34765628 0.6932983 -0.19095673 0.14856708 -0.39969215 0.060804415 -0.0824858 0.09515918 -0.673682 -0.45169833 0.14883943 -0.22584891 -0.024938155 -0.087219335 0.34106743 -0.23812525 -0.16652755 -0.15288317 -0.24476306 -0.3403156 -0.46999103 -0.19439746 -0.84931946 -0.04071426 0.3154916 -0.3814046 0.11844357 -0.5831846 -0.34736732 -0.45876652 -0.201149 0.26471394 -0.29191265 0.16199952 0.24874279 -0.1997229 0.6919873 0.24109076 0.17735408 -0.006767316 -0.5188345 0.279006 -0.4268138 -0.46475688 -0.3308969 -0.12349992 -0.08279221 0.07646919 -0.3343133 -0.60545486 -0.18987398 -0.17990106 0.31786227 -0.40071717 -0.13423024 0.22357382 0.99539673 0.21838492 0.4316937 -0.43664962 -0.46577564 -0.42402446 -0.32794306 -0.7831722 -0.3905177 -0.2147186 0.63998044 0.012855927 0.29651842 -0.378838 -0.20364553 -0.18875787 0.7512888 -0.2862919 0.060966376 -0.68653655 0.31621563 -0.13402966 0.0837621 -0.55763686 0.14282775 -0.2630716 0.44570908 0.3555738 0.31462508 -0.04576171 0.16494077 -0.14616661 0.44228333 0.1605783 -0.4368635 0.7041914 -0.034466483 -0.17948078 -0.039884105 0.3552917 0.025242439 0.13509907 -0.050097514 0.6929369 -0.49936056 -0.46291536 -0.05128521 -0.6225563 0.53425485 0.1767393 -0.20328891 0.7300737 0.11675832 0.15515946 0.11708255 0.24118282 -0.16629964 -0.49210548 0.55632776 0.2126423 -0.106704846 -0.30451658 -0.48460218 0.43671608 -0.25523996 0.7802483 -0.04455528 0.19115134 -0.32181022 0.12577775 -0.09360398 -0.00847535 0.34985912 -0.029499387 0.021862946 0.3730063 0.5296129 -0.13325183 -0.69679207 0.45359343 -0.60035586 0.002959636 -0.032188687 0.25887984 -0.039827153 0.26715142 0.1774831 0.072515294 -0.39363945 -0.18018208 -0.08012599 -0.45527783 0.07465483 -0.13078313 -0.81567997 -0.55730176 0.6072867 0.011458879 -0.00065905805 0.24947137 -0.6671783 -0.36959317 0.14263298 -0.4757664 -0.03641589 -0.43465957 -0.4459535 -0.31027916
公園 0.42561278 -0.2845342 -0.46375358 0.2518163 -0.0884689 0.107717246 -0.4950995 0.530606 -0.010987876 -0.015297054 0.65319014 0.5012311 -0.8474589 -0.5969275 -0.114905275 0.3668934 -0.39373145 -0.74718344 0.06716899 -0.17465436 0.22089447 0.2717154 0.031794704 -0.22858962 -0.061190255 -0.019199247 0.4294917 -0.2174816 0.06682947 0.52979016 -0.7626322 -0.9451214 0.83650684 -0.2152281 0.13558832 -0.41236147 -0.2177443 -0.4299284 -0.1540752 -0.04240232 0.4918504 -0.70475656 -0.6601264 -0.05081088 0.3867381 -0.5096224 0.21841718 0.14037293 -0.27229658 0.9332041 -0.21864772 -0.7545787 0.031044364 0.49404207 0.25998855 -0.29534984 0.17227319 0.21417117 -0.6320753 0.6802447 -0.08924993 0.14360043 0.19393493 0.45222276 -0.31618577 0.19136824 -0.03567785 0.78173673 -0.6711115 0.59709436 0.33122212 -0.2814749 0.6754519 -0.22461616 0.27479497 0.2093862 -0.22152834 -0.06962163 -0.1063703 0.07427205 0.48184294 -0.6650658 -0.707205 0.5655543 0.31362417 -0.32531986 -0.14737055 0.1271384 -0.05610746 0.2134511 -0.43089044 0.36966336 0.2752356 0.38977835 0.31144208 -0.29707164 0.23727585 -0.13793007 0.16416782 -0.06655395 -0.38297054 -0.13363734 -0.31941807 -0.20798896 -0.48044464 -0.040419012 0.21938418 0.3845278 -0.32745293 -0.65884227 0.2564341 0.31046647 -0.38602826 -0.008385612 0.17631496 -0.09027556 -0.1604577 -0.016024634 0.06004395 0.43662965 0.076908655 -0.4888502 -0.086883985 -0.21980676 0.058576033 -0.38512483 0.03659133 -0.1456895 -0.16689982 0.22458333 0.3534244 -0.42346478 -0.26264545 -0.5286847 -0.016854664 -0.3697351 -0.061042313 0.29543924 0.588034 -0.41642815 -0.34291857 -0.5373137 -0.022896517 -0.09922284 0.08809732 0.225941 -0.07454082 0.16853546 -0.3563947 -0.1280882 0.0093128355 0.36270586 -0.20691293 -0.22740704 -0.50152516 0.8231255 -0.05396597 -0.1633255 0.35281664 0.107358225 -0.24020475 -0.04278884 -0.529845 0.09884838 0.4076975 0.40650395 -0.2699212 -0.2199859 -0.7379602 0.17144251 -0.056667373 0.31599334 -0.21977709 0.13335744 0.30485278 -0.03520139 -0.78218395 0.036105465 0.34908804 -0.19230707 0.8536735 -0.16029689 0.42667162 -0.57621866 0.59457684 0.3169787 -0.33526105 0.046569902 0.8931792 0.7506846 0.13426681 -0.036312126 0.44071132 -0.835796 -0.057063613 0.2448431 0.105907515 -0.62289953 0.17613019 -0.1708964
多く -0.39315146 0.2506338 0.12417042 -0.28337696 -0.34078783 -0.58752716 -0.5582165 0.8301235 0.021448124 0.07719672 0.92196524 -0.15394695 -0.26615655 0.23051728 0.17964506 -0.5262541 -0.20423816 0.43216175 -0.67961353 0.20973882 -0.00017487768 -0.19818605 0.18509124 0.51639557 0.005373813 -0.16162233 0.194615 -0.20683973 -0.50320554 0.3797067 -0.6267823 0.47971842 0.10368432 -0.40631503 0.11209623 0.9272997 -0.11783681 -0.7547336 0.09313909 0.14238434 0.05929839 -0.084535465 -0.0074119726 -0.44385192 0.42340252 -0.27110693 0.3355918 -0.039796107 0.007235486 0.0068615424 0.26195565 -0.2543248 -0.18822892 -0.21534674 0.6530496 0.31537166 0.5430556 0.05266361 0.39172918 -0.23210302 -0.09107072 -0.8664497 -0.27464318 -0.054096617 -0.18990229 0.07543033 0.2551656 0.044531286 -0.45011118 0.2325575 0.70051104 -0.043055084 -0.2532646 0.111582875 0.3891784 0.69070166 -0.14316158 -0.3180269 -0.3234981 -0.0806406 -1.1150477 -0.27377072 -0.55692273 0.23858067 0.20849891 -0.13729164 -0.027484844 0.5037472 -0.26212195 -0.12393063 -0.33305416 0.19322479 0.590572 0.75565815 -0.038976412 0.4769284 -0.92992544 0.21225779 0.19894314 0.17275724 0.52454436 -0.13869336 0.1441124 -0.36051127 -0.23511973 -0.4160693 0.012812424 0.25881588 0.59296316 -0.14556196 -0.19709061 -0.3264052 -0.26234633 -0.09766413 0.0014941873 -0.17882673 -0.5066088 0.37926158 -0.5847706 0.5292988 0.011568011 0.1317225 0.76215374 -0.23634087 -0.17173125 -0.19075505 0.0023748747 -0.039997555 -0.5681458 0.20151907 0.296135 -0.3523206 0.0024203816 -0.3642702 0.16635127 -0.52410305 -0.7233912 -0.3113977 -0.62691444 0.09112371 0.0016288984 -0.36583978 0.18211678 -0.28224027 0.4072723 0.5260832 -0.021329293 -0.17976397 0.2067411 0.16384251 0.7215417 0.2759841 -0.68217564 -0.7703553 0.43843982 0.38763094 0.36589718 0.79994595 0.15791012 -0.5181938 -0.15453322 0.9066455 -0.06629253 -0.37288842 0.36028314 -0.017770436 -0.12967585 -0.42796373 0.33256516 -0.13888325 0.3392381 0.07731739 0.14390433 0.16307311 0.33978721 0.20039487 -0.34758648 -0.38122222 0.24443772 0.86487246 0.29034054 -0.22457725 -1.0215738 0.4403282 -0.35624233 -0.1673695 0.05117123 0.01349862 0.9400888 1.0210519 0.5586259 -0.32571384 0.36593598 0.15280895 -0.028661638 0.70518523 0.093426734 0.14565285 -0.09085191 -0.6822633
参拝 0.6604565 -0.18470305 -0.1515928 -0.17258924 -0.2603142 0.13010415 0.54206395 0.42597595 0.7597008 0.475702 -0.43304956 -0.37008336 0.6532306 -0.38629064 -0.32248864 0.23615518 -0.2077263 -0.013912555 0.4436839 -0.33677426 0.09387787 -0.43133533 -0.7762737 0.37837887 -0.5592874 0.5234628 0.5558787 0.03942764 -0.26027685 -0.32146993 -0.4294402 -0.010629602 0.48769957 -0.6718492 -0.07113398 0.53000766 0.49924433 0.4659971 -0.7624757 -0.25761932 0.025435295 0.23429275 0.17986669 0.43018746 0.43352208 -1.0197022 0.029259305 0.27484018 0.26409656 0.2534266 -0.05631822 -0.026988694 -0.6208778 -0.6048451 -0.087993115 -0.27012008 0.20156004 0.20828085 0.08115001 -0.24515374 -0.2996036 -0.31736058 0.43149388 0.2303397 -0.1601887 -0.035959594 -0.3456116 0.5749622 -0.32057685 -0.42181605 0.8824099 0.16322842 0.43873495 0.43483087 0.49148005 0.09956195 0.41484597 -0.32839614 0.29205087 0.4390227 -0.26467094 -0.24743553 -0.59834826 0.31541803 0.1777525 -0.397913 0.22734302 -0.05964838 0.18261847 -0.2176008 -0.007555829 -0.2987066 0.72172 0.6167505 0.5109946 -0.04782637 0.78059113 0.21366604 -0.04213535 0.41579634 0.21725947 0.0972932 -0.008379229 -0.013843809 -0.3767058 0.19230722 0.21398723 -0.011176319 0.07137759 -0.3163148 -0.2187831 0.18272384 -0.1765711 -0.35029927 0.0989346 0.12937729 0.0023971584 0.15153408 -0.3690353 -0.3988254 0.08927365 0.5179866 0.43036056 -0.5880618 0.21574982 0.4050152 -0.6289716 -0.35828114 -0.55862325 0.22238158 -0.71516114 0.0477456 0.34227687 -0.47459918 -0.9012124 0.19740172 -0.57817036 -0.12827912 -0.37681013 -0.59912276 0.38533387 -0.45521414 -0.36855885 0.35152933 0.5156428 -0.4901254 0.3056231 -0.8525598 0.29700783 -0.00518214 -0.45839936 -0.3350878 -0.3500236 0.39021856 -0.7302707 0.35046375 0.065311536 0.08341237 -0.49725258 0.16269423 0.3006778 -0.0076078176 0.25680375 0.12986393 0.10379072 0.53983974 -0.26798856 -0.2235913 -0.6368213 0.65989196 -0.24606663 0.24728252 0.7407389 0.16055852 -0.27249008 0.5385 -0.37328342 0.46975026 -0.37580854 0.097180724 -0.31241074 0.24932148 -0.20011297 -0.25363362 -0.19187924 0.0047045657 0.50145763 0.03080393 -0.066861965 0.08045245 0.42428508 0.07463993 0.06305531 -0.10508536 0.6830885 0.042856846 0.23605515 -0.31844524 -0.031089982 -0.17241164
駐車 -0.15114416 -0.069491744 -0.1843372 0.13987471 0.37180346 0.6365188 -0.21019031 0.24811153 0.21555 0.033352684 -0.21239758 -0.4181229 -0.24303356 0.2786169 -0.62658924 -0.74248904 -0.007833985 0.62539935 0.534855 -0.07373905 -0.055596925 -0.3568114 -0.26605102 0.29569572 0.23025064 -0.49901345 0.35158947 -0.46079022 -0.13283175 0.07464934 0.5882424 0.21387158 0.3361241 -0.16802411 0.11667923 0.35317877 -0.02654233 0.47099033 -0.013717772 -0.91781175 0.18257375 0.14470816 0.42933017 0.25524756 -0.3572501 0.08776477 0.41018808 -0.69776845 0.787343 -0.21060807 0.7245445 -0.28409433 0.15895279 -0.23024584 -0.39877206 -0.11443448 -0.61934406 0.19191913 -0.1174383 0.083894625 -0.06445315 -0.38696748 0.35421425 -0.06010177 -0.111453846 -0.66783786 0.40514594 0.29079738 -0.57197 0.5386265 0.37151644 -0.35294163 0.37491414 -0.10342069 -0.16507894 0.22546 0.18186577 0.13252 0.11876586 0.36357832 -0.35388482 -0.2769574 0.16215295 0.28778917 -0.25441843 -0.16614045 0.19374256 0.20219067 0.51566863 0.069873996 -0.20787935 -0.40742332 -0.37619516 -0.03451141 -0.2187315 0.7246943 0.008056821 -0.5147647 -0.530726 0.062906705 0.25318873 0.4603011 -0.24673261 -0.33620772 -0.44199955 0.20301409 -0.13841482 -0.37737143 -0.86125726 0.12152722 0.13442512 -0.7939311 -0.49407753 0.06834164 0.28626487 -0.5095167 0.0733474 -0.9184626 0.06255806 0.61477315 0.07599807 0.32925475 0.8111954 0.41113657 0.0046707327 0.9516754 -0.5905325 -0.13053614 0.010542367 -0.10271321 0.0618759 0.07777481 -0.04093034 -0.70314866 -0.60135955 0.2465448 -0.27090424 0.22181718 0.09011773 -0.47980177 0.31604844 -0.24533336 0.26972023 0.18265806 -0.063818306 0.28211713 0.4329251 -0.17209858 0.061557926 0.11675393 -0.053599276 0.16095997 -0.10429775 0.6611855 0.12858334 0.21826196 -0.0553533 0.074453175 0.12692405 -0.56335914 0.7198608 -0.19226687 0.16704859 0.10723856 0.3205531 -0.011327521 -0.17638002 -0.548231 -0.53031343 0.26573887 -0.41300675 -0.059419554 0.57760066 0.21785639 0.17167972 0.9363737 0.32787958 0.65423816 -0.34370583 -0.19883958 -0.23789103 -0.5552951 -0.1377294 -0.20925036 0.5610556 0.41877675 -0.11460053 0.79029566 0.2714136 0.28674325 0.3996856 0.028387066 -0.5470025 -0.123555645 -0.25338858 0.07263982 -0.29025313 0.023829075 -0.24793924 -0.0762494
なく -0.2659016 0.030567206 -0.64449805 -0.03429425 -0.4019342 -0.6203383 -0.2184455 -0.069154255 1.1250029 -0.2940992 -0.30351746 0.36960518 -0.4195961 0.34517092 0.10445849 -0.12391451 -0.34780756 0.091294676 0.22242737 -0.030153144 -0.17263526 0.19651212 0.22477266 0.20306168 -0.09023139 0.14708242 -0.1519936 0.5001955 -0.07144561 0.024143182 0.3190585 -0.1611218 -0.29311347 -0.1230083 -0.5779424 0.360147 0.15811148 0.56447774 0.016841065 0.3463402 0.14388305 0.05885396 -0.81099945 -0.17205541 0.49709922 -0.48225388 -0.7230735 -0.061547935 0.60676575 -0.15458007 0.41301084 -0.12165945 -0.28121474 -0.44847998 1.367765 -0.03048732 -0.21330188 -0.098066635 -0.39652467 -0.46759602 -0.2714833 -0.34695885 -0.5191938 -0.30350426 0.1420845 -0.15714061 -0.3855219 0.13527238 -0.0067678117 0.97082216 -0.078303695 0.16832289 0.67415696 0.4850599 0.32951865 0.5832189 -0.85279304 -0.06457624 -0.21496263 -0.6319986 -0.34917173 -0.68418443 -0.39627758 0.52419716 0.44984406 -0.03992454 0.81955856 0.61833274 0.28744924 0.018318417 0.1018696 0.5027873 0.40354404 -0.1987609 0.25574648 0.367798 0.17988175 -0.3070159 -0.60973907 -0.5719553 -1.153947 0.89397347 0.2675233 -0.20847833 0.26947337 -0.5496564 0.14022478 -0.012436044 -0.0059848307 -0.115334585 -0.48163182 -0.008334879 -0.11340495 0.16571243 -0.065963656 -0.5749267 0.2741153 -0.11229412 0.12412405 -0.2845998 -0.58206004 -0.18630488 0.14699255 -0.6137798 0.12690802 -0.0082125375 0.21946318 0.54675794 -0.22050193 -0.27092224 0.0006626666 -0.031884726 0.06536053 0.11114082 -0.3428852 -0.01002911 0.21743217 0.14279886 -0.11561354 -0.42431235 -0.12840156 -0.07918483 0.256005 -0.14399147 -0.82165295 0.08943967 0.02812006 -0.44804344 -0.2725266 0.07972986 0.2614607 0.624892 0.03961542 0.59802705 -0.39373302 -0.19434936 -0.10008671 -0.11016907 -0.5936015 -0.5240428 0.34029007 0.3280588 -0.2704597 -0.57341677 -0.097266115 -0.13752928 -0.15528421 0.033001635 -0.74027336 0.101829134 -0.046375293 0.15234195 0.4656182 1.395171 -0.530211 -0.6275989 -0.28351617 0.10467898 0.1801798 0.059835162 0.07500168 0.42367122 0.06989117 -0.4455229 -0.20381276 0.26000103 -0.2173116 0.70971733 0.29880467 -0.1256797 0.069377914 -0.13640296 -0.22802342 -0.3361993 -0.33538884 0.6027363 0.14784202 -0.5011167 0.3729681 -0.032268446
予約 0.5256946 0.047186363 0.02713448 0.18144986 0.36828166 0.24656397 0.17904507 0.21995842 -0.27547425 0.6780234 0.71851635 0.2755373 -0.26046395 -0.13469258 -0.13103096 -0.48180288 0.4416239 0.22187266 -0.13123475 0.11682463 -0.006816637 -0.53305763 0.2922139 -0.16738756 0.082861625 -0.28774014 0.60088927 -0.2567444 -0.31272432 -0.13729835 0.22581948 -0.57401955 -0.8396623 -0.033419847 0.5784348 -0.12347803 0.342294 0.012050646 0.2663161 -0.38128686 -0.24063306 0.24570921 0.40355355 -0.41180623 0.65611655 -0.40152082 -0.7121343 -0.03548088 -0.012124204 0.5936709 0.34267527 0.1522518 -0.06913401 -0.14221533 -0.92017925 0.15649278 -0.011028721 0.1734999 -0.490558 0.24672164 -0.00889083 -0.2926962 -0.022942606 -0.039848913 -0.12610593 0.4543991 0.29049113 0.1341345 -0.7976551 0.7373557 -0.36273128 0.3982215 0.12129083 0.16179317 0.27348405 -0.048940517 0.044078413 -0.7893849 -0.8201582 -0.5409016 -0.36775392 -0.34060284 -0.26356518 0.28911698 0.2481576 -0.14994054 0.18715645 -0.58422154 -0.11377799 -0.5763429 -0.7705114 0.0077956696 0.012851914 0.6398902 0.6480619 -0.012213088 0.37826875 -0.1715931 -0.22148475 0.18685637 0.0478188 -0.0038233155 -0.34571263 -0.37587845 0.06498177 -0.21834378 -0.12497389 0.24710418 0.036971807 -0.13897572 0.4801871 -0.61160296 -0.17558658 0.23953764 0.03979319 0.35053438 0.069036506 -0.31365436 0.424264 -0.6363686 -0.22358835 0.06081403 -0.040754765 -0.46079287 -0.045088794 -0.5148245 -0.03260791 0.27177274 -0.34643158 -0.80753106 -0.42304578 0.11963295 0.6107866 -0.33535293 0.22354434 0.41617158 -0.08567618 -0.2540074 -0.04956993 0.36794174 0.5189956 -0.32415444 -0.4836413 -0.11747687 -0.43841496 -0.48357987 -0.17838016 0.51037544 -0.18137965 0.39271703 0.83166844 -0.34232965 0.07687816 0.1093694 0.17767091 0.7921727 0.40261814 0.30025545 0.22554222 0.1700981 0.3518738 0.26801845 0.5071437 -0.18344778 -0.19380805 -0.18049769 -0.10002188 0.12531963 0.26875895 -0.06180066 0.5369935 0.3298178 0.71152455 -0.14720674 0.33885357 -0.15100026 0.38686824 -0.56436384 -0.087706506 -0.53415006 -0.34921843 -0.2988868 -0.075491145 -0.3634664 -0.20589496 0.5286564 0.44762543 0.4976104 0.592009 0.2751028 0.47741705 0.39488423 -0.7752113 0.66439974 0.6549146 0.34740722 -0.15014297 -0.49353373 0.39686826 0.11150475
案内 -0.38228527 0.56496954 0.45303386 0.1558998 -0.020315072 0.12927991 1.0522909 0.36854532 -0.22127184 -0.419865 -0.40639004 0.029986866 -0.3794387 -0.3500277 -0.620272 -0.09137876 0.31935382 -0.06600925 0.2595654 -0.039053295 0.17757627 -0.23392516 -0.11578127 -0.0290059 0.7068012 -0.1730195 0.38249236 0.13916579 -0.61472934 -0.5301462 0.10736676 -0.026191713 -0.34619716 0.15906061 -0.25508627 0.081281245 -0.3219893 -0.5602168 0.1965509 -0.705054 0.5649957 -0.03644495 -0.45951644 -0.09616771 0.3174602 0.22197445 0.39773983 -0.9865649 -0.025764143 0.35530704 0.03644624 -0.02017421 -0.23394395 0.06325117 0.1347789 -0.2115875 0.0720111 0.051340114 -0.026871802 0.43782762 -0.029528555 0.17664716 0.33964747 -0.15665492 -0.2546412 -0.0062521347 -0.27933618 0.2787206 0.43452737 -0.112435505 0.43786067 0.23740327 0.7725585 0.08932807 0.59057844 -0.14986831 -0.31558043 -0.4045016 -0.33921623 0.34561747 0.32687128 -0.25198087 -0.38570866 0.3427189 -0.5141215 -0.55879223 -0.0499672 -0.043752395 0.034964144 -0.2972955 -0.07378598 0.2993496 -0.05262664 0.58441806 0.49187627 0.4701255 -0.29157543 0.378731 -0.3762119 -0.10264636 0.37958208 0.79056025 -0.029185396 -0.2898596 0.17525147 0.31862676 0.28227702 0.4336898 0.0023136786 -0.16340198 -0.39477983 -0.2533566 0.52407223 0.38759547 0.32409802 -0.6297627 -0.14231858 -0.06996969 -0.010972873 -0.028771065 0.57087827 0.26101652 0.22536367 -0.31773955 0.14507902 -0.282616 -0.15222047 1.0899762 0.11179601 -0.24917826 -0.10007717 -0.35535434 0.118526764 0.28161454 0.2321057 0.6350008 0.3985955 -0.55704254 -0.32722878 0.12553099 -0.25191876 -0.41938323 0.6108807 -0.41726357 -0.26367503 0.7064318 -0.37498042 -0.38915515 -0.6370454 -0.14575602 -0.5305319 -0.8674066 0.36896572 0.58522743 0.08343423 0.18000732 0.28501806 0.59056395 -0.4203682 0.061014216 0.53889436 0.018851606 -0.26027253 0.9182172 0.14403388 0.38170564 -0.06629166 0.28479558 -0.50513005 0.40589526 -0.34005883 0.36036623 0.27490956 -0.42157644 0.5785683 0.43162104 -0.44227567 -0.6343454 -0.09258242 0.020163197 0.18600652 0.05963946 -0.23174226 0.42385048 -0.06377064 0.19509004 -0.5760698 0.099141166 0.45871815 -0.43659 0.8625987 -0.16957164 -1.0008333 -0.49339488 0.24766241 0.17762078 0.30888703 0.08716303 -0.28961262 -0.8109341
ぶどう 0.44538963 -0.07761275 -0.42914006 0.44680294 0.054096118 0.18761654 -0.2310556 0.65372705 -0.7323855 0.55907995 -0.20448539 0.18759912 0.32480836 0.3641056 0.015730426 -0.42066237 0.21151745 -0.5467005 0.30684227 -0.44109926 -0.4582683 -0.08096205 0.4303346 -0.46858156 -0.053988602 -0.24501052 -0.54367584 -0.28903735 -0.5777102 -0.19753721 0.82046795 -0.22169653 -0.37088546 0.1883036 0.17205237 -0.09413224 0.49892473 -0.39607015 -0.14232424 -0.3952356 0.114455104 -0.10982912 -0.4551018 -0.2894153 -0.010837933 0.053772792 0.007230949 -0.050415985 -0.15419379 0.067058586 0.13061604 -0.72018796 0.2373311 0.40159473 0.2632956 -0.119332716 -0.081514955 0.16463852 -0.6142448 0.15882128 -0.5312941 0.048122667 -0.3384432 -0.14619474 0.341485 0.13491207 -0.19163853 0.07250437 -0.0055526923 0.19028045 0.786066 0.06622983 0.82980555 0.4388774 -0.451591 -0.22904053 0.5930463 -0.4521849 -0.32659635 -0.00050898077 0.13141766 -0.17510904 -0.47857925 -0.45274287 -0.11342077 -0.50517523 -0.38653412 0.1629643 -0.00850941 0.24217242 0.315738 0.3338168 0.034116864 0.78282064 0.23683332 0.7555005 -0.21856123 0.0026853902 0.19890885 -0.02974283 -0.64711 0.025431082 0.3693153 -0.78140557 0.30598286 -0.25260037 -0.16237308 0.15014192 -0.24750148 -0.13860668 -0.2685979 -0.46107593 -0.11773073 -0.3745879 0.07517491 0.057635535 0.20897585 -0.008752268 0.4474449 -0.017975753 -0.015369852 0.10682785 0.48879603 -0.5675085 0.47075593 -0.082033716 0.25324404 -0.30284733 -0.40809044 0.062723584 -0.70526487 0.4097605 0.4142021 0.045852147 -0.6269183 0.55119896 -0.68246776 0.1757306 0.018937893 -0.27579448 0.5925389 -0.15321812 0.023768896 -0.013410608 0.26364437 -0.3046914 -0.723532 0.04438293 -0.20600232 0.3657759 0.30710036 -0.13326713 -0.4230047 0.6583596 -0.041340686 0.03811661 0.14500776 0.24980976 0.32371747 -0.040608738 0.8047924 0.3438698 -0.58423644 -0.11657275 0.54349184 0.7282388 -0.3660103 0.028672306 -0.3679496 -0.13872442 -0.5626992 0.74126846 0.5750921 0.20286547 -0.17196797 -0.5403244 0.263556 -0.78424627 0.02107509 0.08013605 -0.25130165 -0.053495742 0.06154735 0.35770983 0.26778197 -0.19893399 0.17024878 0.5517906 0.4608351 0.06451795 -0.24552193 0.29228488 -0.35790825 0.51027393 0.866383 -0.12505123 -0.35028374 -0.07195131 0.44869348 0.04772828
ところ 0.45253876 0.5270672 0.61465245 0.023819797 0.2560416 -0.29614967 -0.57994473 0.2361816 -0.20865636 -0.049999084 -0.05972777 0.33604065 0.30059305 0.6516427 0.06726222 -0.10165802 -0.036962323 0.13392358 0.4382153 -0.03544645 0.2091028 -0.5327231 0.46543092 0.0003352292 -0.097535 0.071469456 -0.48992968 0.5152754 -0.23490879 -1.1193405 -0.025233408 0.2854774 0.36472097 0.26412526 -0.5842326 -0.84924734 -0.041626204 0.1375431 -0.9195718 -0.004829068 0.103365906 0.06611243 -0.26715687 0.48257655 0.16057187 -0.043668978 -0.2785104 0.4309687 -0.5690516 0.2549313 -0.34212264 -0.055362966 -0.12634398 -0.35813576 0.3817117 0.082717985 -0.4127556 -0.41360357 -1.0364928 -0.21530399 0.26825532 0.007758857 0.27485636 0.63324076 0.031745568 -0.2510875 0.4102022 0.13572934 -0.088267274 0.5375065 -0.35012433 -0.3348942 -0.07273643 0.6590456 -0.065909825 0.62492615 0.009127613 -0.099773034 -0.7711099 -0.01764532 -0.19278882 -0.47336295 -0.2118767 -0.09411366 -0.38528576 0.14393339 0.6176839 -0.11596831 -0.18110733 -0.4262029 -0.14426504 0.056140147 0.5462408 0.6373234 0.00447198 -0.05651556 -0.16350466 0.9052406 -0.07597599 0.053090293 -0.19417 0.2317927 -0.1990237 0.20443907 -0.059219986 0.102716595 -0.087495774 0.50935787 -0.12372514 -0.4261236 0.037233055 -0.088122025 0.24115418 -0.35091195 0.26420197 -0.1265246 0.15242207 0.014542497 -0.5368043 0.67164564 0.20136248 -0.4272259 0.1634792 0.10477117 -0.19057845 -0.14257549 -0.9386637 -0.7295185 0.16562729 -0.45629808 -0.0060409326 -0.15174916 -0.37358072 -0.4706314 -0.14076804 0.57762074 0.004357612 0.3380996 -0.29191506 -0.5591525 -0.13131069 -0.37522548 0.4809789 0.597986 0.3495864 -0.31671372 -0.440805 -0.2585671 0.08730713 0.340271 0.39886433 -0.7097848 -0.51576114 -0.25141263 -0.019173846 0.03466031 0.26844004 0.082929306 -0.037761174 0.40505892 0.54334766 0.5328956 0.5702757 -0.8133085 0.8155 0.57826376 0.34549618 -0.06237228 -0.07490103 0.44507572 -0.23009568 -0.41324708 0.16456962 -0.36584142 -0.37930796 -3.4899538e-05 -0.46655083 -0.051321104 0.66823 -0.42429876 0.39525658 -0.35515544 -0.7456475 -0.45622006 0.46106467 0.04344836 0.19819677 0.36790168 0.30213448 0.74424 0.4218476 -0.1656058 -0.64710015 -1.0555091 -0.11827037 0.57263917 -0.11602908 -0.28307635 -0.7210258 -0.725096
感じ -0.04670199 0.0735782 -0.083939046 0.15714245 -0.2668167 -0.4567818 -0.17805173 0.48211405 -0.33272642 0.19485143 -0.43569443 0.34489572 0.034609552 0.11007572 0.29224506 -0.124740504 -0.03649556 0.16000405 -0.74148333 -0.7050588 0.4052283 -0.6431561 -0.49420446 -0.038074248 -0.77595395 -0.5749063 0.033384282 -0.37415332 -0.6797277 -0.23469 0.539084 -0.23599388 0.23039582 -0.27273107 -0.63923925 0.037928514 0.5620998 0.17760614 0.17052144 -0.09864907 0.23152259 -0.098483995 0.111291744 -0.37478584 0.54711205 -0.32467473 0.23303124 0.19226825 0.57832336 -0.3825169 -0.23099752 -0.116878875 0.33292887 -0.44089657 0.6494507 0.25991097 0.004733853 -0.06783861 0.23489602 0.5197637 0.527477 -0.9317314 0.054952867 -0.9072747 -0.41000032 -0.09771461 0.10479221 0.19984123 -0.24570224 0.38337934 -0.99225986 -0.030337596 0.698322 0.4216813 -0.058397807 0.2893299 -0.53028876 0.18181904 -0.021366159 -0.20725435 0.2415217 0.12327487 0.33810908 0.1382694 -0.44988537 -0.26096284 0.39331248 -0.028647155 0.19498596 0.4429626 0.02653698 0.04221092 0.72819614 0.89271915 0.7347556 0.35129815 -0.20868978 0.7484542 0.20303889 0.43220183 -0.2378068 -0.077255875 0.34187374 0.084008336 0.32430926 -0.45089445 -0.3880207 0.07923478 -0.46681884 -0.26787388 0.15071477 -0.05243982 -0.91909987 0.1377859 0.6360928 -0.006692059 -0.6680763 -0.14529406 -0.46114168 0.016066624 0.50188 -0.6084139 0.31175792 -0.07514317 -0.13145985 -0.3502908 0.039415102 0.322331 0.36262894 -0.39019156 -0.33863547 0.28262517 0.30095914 0.16068922 0.12633516 0.5482777 0.11024742 0.094038926 0.799924 -0.39656124 -0.21740061 -0.0770247 0.13253696 0.05438849 0.017135307 -0.041110978 0.08639582 0.346735 -0.4741875 0.58505154 -0.21191955 0.14771864 0.07600662 0.1552741 0.053617693 -0.27759832 0.36904734 -0.24303558 -0.3347634 -0.2735271 0.3768132 0.66936517 0.10204765 -0.28626984 -0.616708 -0.1222476 0.015106505 0.9302957 0.29732004 0.15842651 -0.13639101 0.28238007 0.033624016 -0.31965238 0.48707357 0.23177378 -0.22667435 -0.38106152 0.2841194 0.2673904 -0.10975168 -0.115094915 -0.045660853 0.7578586 0.14939296 0.52480865 0.10479501 -0.16032936 0.39070556 0.27008647 -0.6188464 -1.0156596 -0.04316875 -0.8429194 0.72205997 0.88614815 0.00489576 -0.37229273 -0.51785636 0.20750645
もの 0.8582419 -0.64804494 -0.3633176 1.01683 -0.45161456 0.22224514 0.07220816 0.20803417 -0.43247968 0.6824252 -0.26471218 -0.8046211 -0.02905066 -0.20965599 -0.81069034 -0.839362 0.08124606 0.14884616 -0.1291083 0.08089914 -0.30793014 0.14339694 0.43018624 0.44340006 0.21980776 0.07449647 0.40562543 0.05836844 0.7019608 0.020162722 -0.11292436 -0.6117528 -0.062435843 -1.0269024 0.18917441 -0.113042116 -0.104097694 -0.5604978 0.3319857 -0.4593598 -0.03191296 0.012828904 -0.033831988 0.22503556 -0.012490723 -0.04319343 -0.4542556 -0.23577595 -0.25298476 -0.4837984 0.32530215 -0.7789778 -0.0022738706 -0.4534607 0.7509634 0.26619482 0.35897604 -0.73686194 -0.34742948 0.31817916 0.8474866 -0.50663495 -0.29263064 -0.059942555 -0.8989611 -0.7302494 -0.13498352 0.28901267 0.18866855 0.16612144 -0.09859591 -0.32880288 0.5984297 0.3331263 -0.25694364 0.26589483 0.34802973 -0.57886165 0.24445608 0.17968357 0.10839408 0.85340285 0.064178795 -0.5173157 -0.23835863 -0.27498332 -0.55707604 0.36750993 0.2726625 -0.19703765 -0.31016037 -0.36159194 0.12125838 0.33382002 -0.0031922224 0.11591237 0.22956988 0.29452893 -0.31726977 0.100063235 0.18036346 -0.2759938 0.8624058 0.29205137 0.20274362 -0.35120487 0.29086402 0.25782198 0.059105515 -0.72118 -0.44720963 -0.35775056 -0.08391489 -0.46793136 -0.061198164 0.19118157 -0.55490565 0.059432454 -0.54227555 0.55811965 -0.28490385 0.5189936 -0.65807265 -0.089693464 -0.2632091 -0.0750932 0.039975032 -0.046975255 0.10691837 0.0045030424 0.28541312 0.10912293 0.4991027 -0.06266854 -0.18036519 0.034571666 0.5549412 0.30846044 0.09340259 -0.59773535 -0.022603301 -0.052225564 0.050980434 -0.8278186 -0.1179135 0.5293435 -1.058075 0.3829059 -0.07662857 0.30570012 -0.40982243 -0.33439073 -0.80857396 -0.24351606 -0.61208785 0.35992315 0.17257743 -0.3088323 0.16226664 0.47377577 0.2577414 0.21642286 -0.10570303 -0.5128655 0.49759713 0.24761814 0.51757807 0.15990144 -0.18965085 -0.0781723 -0.13888384 0.059362482 0.9155876 -0.16535772 0.13924843 0.21055537 -0.51740676 0.14096797 0.83970857 -0.25644517 0.23114082 0.6553213 -0.08669029 0.26300797 -0.5038331 0.829766 -0.024249217 0.15813595 -0.11560619 -0.58020175 0.4078601 0.12589966 0.084117845 0.6201727 -0.5495876 0.7592376 -0.22364122 0.08672277 -0.051602166 -0.042971317
近く -0.44972363 0.12629153 -0.5712592 0.07743978 -0.056355815 -0.07773157 0.061026927 0.5921923 -0.01110319 0.29073113 -0.71406955 -0.04707645 0.58589745 -0.8739104 -0.32002717 0.15804516 -0.0058643767 -0.37674093 -0.0027843483 0.02022603 0.17543766 0.038183134 -0.00816169 0.511128 0.072417565 -0.20425805 0.5154539 -0.91225505 -0.1197762 0.77475584 -0.11145399 0.0911965 0.72380024 0.21240523 0.7808613 -0.047213867 -0.15998304 -0.10199708 -0.043222066 -0.17162366 0.68498147 0.21772645 -0.34842718 -0.60408205 0.12023383 -0.4882493 0.38148096 -0.06287306 0.15560396 -0.7767301 0.97731453 -0.829122 -0.36945048 0.15830861 -0.071865894 0.25511923 -0.17597745 -0.5014975 0.52322704 0.14452504 0.1808499 0.3015723 -0.8535029 -0.43067926 0.18657407 -0.083692335 -0.66979706 0.49396956 -0.23464048 0.6011156 -0.25008625 0.33766606 0.86498934 -0.25371677 0.53190374 -0.39612028 0.43885908 -0.103856385 -0.54157823 -0.071619794 -0.19318803 0.0069380193 -0.012887461 -0.025292404 -1.118869 -0.022855632 -0.44815207 -0.027487326 0.4389885 -0.017282564 0.5454586 0.17612024 0.5217929 0.18004984 0.50894195 -0.039985072 -0.14669588 0.07956691 0.03797306 0.42415574 -0.23849602 0.64178205 -0.039124664 -0.32041368 -0.024177868 -0.79923415 0.4975699 0.07188864 -0.4777022 -0.17420545 0.37576458 -0.5325444 0.18699518 -0.08417631 0.31446728 -0.3327329 -0.11961632 0.08477636 0.4355745 -0.23130898 -0.040307634 -0.19442703 0.8787981 -0.4801149 -0.16463433 0.25777662 -0.15547028 -0.47369075 0.18138896 0.22422823 0.081794135 0.52579504 0.1836192 0.47782552 -0.2196912 -0.30613932 -0.24623118 -0.17191058 0.19956058 -0.6895189 0.610515 0.16868928 0.2857374 0.13413304 -0.71559155 -0.04685094 0.49763447 -0.0028035818 0.8700217 -0.25970486 -0.5123951 -0.12871376 0.65620047 -0.1638739 -0.09474535 -0.4045789 -0.3433477 0.18259925 -0.51032245 0.24997768 0.20702432 0.2625915 0.045075417 0.43509683 -0.16721241 0.90661883 0.57343704 -0.34568244 0.19902027 -0.11599358 0.22317015 0.22285627 0.1954384 -0.41579008 0.4400603 0.30381045 -0.06584537 0.260268 0.57058483 -0.46470252 0.51072854 0.0825869 0.4150469 -0.0426634 -0.13595775 -0.28644967 0.18364634 -0.3091841 0.33955145 0.25443196 -0.12669276 -0.03783596 -0.95995003 0.061552532 0.10273817 -0.058375213 -0.32117727 -0.069004655 0.048578463 -0.13266592
満足 0.69315284 0.568905 -0.31210753 0.040173367 0.16741243 -0.2161723 0.02182669 0.0519155 -0.041692074 -0.26108885 -0.103875406 -0.07504727 -0.27033705 -0.27643225 0.36405814 -0.16811028 -0.0012186259 -0.3596407 0.22385895 0.0665592 0.10684203 0.11011728 -0.15172552 -0.1493449 -0.21723908 1.0705608 -0.40018088 -0.0039355187 -0.6876579 -0.3641892 0.62266815 -0.4139178 0.08232844 -0.6687274 -0.17545156 0.40893388 -0.03006461 0.18817793 -0.2465554 0.25868225 -0.8600639 0.039046958 0.42642528 -0.4371216 0.65968496 0.021988038 -0.40303764 -0.30218732 -0.2521473 -0.47189653 0.22023848 0.02700616 0.072921716 -0.44768065 0.9621699 -0.46916673 0.092710726 -0.08180211 -0.5701763 -0.14868644 -0.5635661 -1.0384399 -0.497248 0.11322396 -0.9144859 0.17507347 0.18198335 -0.33851695 -0.4188599 0.06821241 -0.3018982 -0.22727306 -0.15112707 -0.51454735 0.06446084 0.3016699 -0.013694748 0.22223862 -0.85839653 0.27233464 -0.08872328 0.02740898 0.008247376 0.67318916 -0.07482245 0.032847922 -0.2266407 0.1277315 0.30461746 -0.31808487 -0.18145339 -0.15233581 0.22274958 -0.39460653 0.25669658 0.22892593 0.030941317 -0.23240982 0.36303315 0.060003884 -0.15822221 0.32945624 0.7083524 -0.085324444 -0.29015717 -0.06932123 0.23443323 0.22792497 -0.9350027 -0.8608519 0.45595106 -0.65281147 -0.14856824 -0.27404058 0.01644251 0.07944804 0.21833201 -0.020381426 0.07696111 0.4441649 -0.6040704 -0.42180553 -0.07948112 0.25429308 0.14741217 -0.11134497 0.2682201 -0.124911904 0.53158545 -0.5135374 0.050606158 0.75674796 -0.20011179 0.03782505 0.2848061 -0.22371654 0.35680714 -0.8500236 0.54735994 -0.6400681 0.5750411 -0.3190178 -0.09093841 -0.016149897 -0.018030396 -0.41932032 -0.20075083 -0.066883765 0.103048675 1.0253011 0.05824071 -0.6262956 0.1866016 -0.72205454 0.119913995 0.5762033 0.12897462 0.5147731 -0.62326795 -0.24598609 -0.54813373 0.2810526 0.23175691 -0.38100794 0.07591985 -0.19767983 0.26355475 0.6275645 -0.29821834 -0.16189845 -0.31228733 0.7082215 0.09064901 -0.6508629 1.2218968 0.5774798 0.5247384 0.036831055 -0.0491933 -0.23463733 0.37073764 -0.09266741 -0.047591943 0.31182647 -0.0013272484 -0.18238632 0.057604913 0.71278816 -0.13550158 0.13102031 0.41275463 0.5052978 -0.35824063 0.09283921 0.32855675 0.30221152 0.15754561 -0.10798431 0.75447106 -0.24285391
種類 0.15520613 0.1815801 0.020476185 0.15493757 0.47052294 0.014380876 -0.39150527 0.44933587 0.028058333 0.3645183 0.00053721666 -0.100688145 -0.7817756 0.39545453 0.23696709 -0.25870436 0.13921432 -0.11022337 -0.3363799 -0.071459524 -0.7964735 -0.43562698 0.36143965 -0.2679298 -0.18765154 -0.6981506 -0.10549165 -0.55358464 -0.11863255 0.22849949 0.0881417 -0.3428602 0.018949755 -0.27617118 -0.5681896 -0.39353168 0.11252483 0.34716114 0.09161349 -0.13465096 -0.14990878 0.2000781 0.62957186 -0.086421475 0.11887865 0.08849253 -0.6501286 0.1551066 0.14211147 -0.031047473 0.23139282 -0.17906936 0.8468439 -0.29281655 -0.61823386 -0.2766408 0.14305247 0.18889835 -0.45560107 -0.025331775 -0.05108705 -0.81642824 -0.32747737 0.48489714 0.26450688 -0.22034895 -0.55675197 0.69612825 0.15761639 -0.36896646 0.63007355 0.75034887 0.39198294 0.20407741 0.26908728 -0.07117926 -0.18539204 -0.084389016 -0.34707928 0.27845323 0.3870065 -0.566173 -0.43327364 -0.06115613 0.038189743 0.2553808 0.24734797 0.43026185 0.23917226 0.43568277 -0.03685428 0.33197546 0.039434552 0.48138428 0.2019479 -0.054861926 0.034125466 0.41500485 0.15666176 -0.38100997 -0.1730917 -0.104493484 0.7429079 0.5880039 0.5661824 0.4920099 0.23093544 0.27380335 -0.39367202 0.43179834 -0.105729826 -0.74108726 0.0034202568 -0.7211691 0.49703985 -0.2876256 0.08215302 -0.8169171 -0.23262854 -0.17498165 -0.05459644 0.24756481 -0.24472268 -0.0076235626 -0.66369176 -0.20726044 -0.37935704 -0.6903096 -0.43109852 -0.75952214 -0.36673558 0.19801638 0.45159724 -0.47260323 0.1978728 0.5024699 0.018519675 0.13302407 -0.081385456 0.0025584365 0.31991166 -0.5023303 -0.22373874 -0.1504322 -0.35415483 -0.44384813 -0.58476967 -0.45075443 -0.065238886 0.8891863 -0.38073567 0.15597175 0.10333681 0.4016486 0.3147661 0.47351918 -0.31279776 0.5852639 0.014195951 0.041784678 0.6743509 0.115446925 0.07402824 0.018581992 -0.24747805 -0.21055391 0.33279476 0.08783888 -0.03563184 0.29967475 0.23612204 0.7210262 0.17680396 0.21603253 0.17042522 -0.13328663 0.230391 0.1268417 0.4817094 -0.04957509 0.09907211 -0.03920511 -0.20320734 0.49051157 -0.26616344 0.06080112 -0.11253573 0.5673096 0.671589 -0.189087 0.22142628 -0.06253718 0.5201595 0.49177215 -0.104939945 0.06189353 -0.44276592 -0.28792918 -0.6206096 -0.2561937
展示 0.35566473 -0.001201426 0.44570664 0.37806693 0.19721791 0.057419933 0.06607543 0.7558182 -0.17880723 0.17109972 0.29049447 -0.6470254 0.18269455 0.2812049 0.14951527 0.45510986 -0.6975706 -0.24310288 0.8484313 -0.22897099 0.121084996 0.42823377 -0.14036308 0.3392199 -0.5016382 0.23866282 0.6067483 -0.399575 -0.90930164 0.5547989 0.82157826 -0.39545232 0.22523536 0.42701185 0.0296468 0.15542272 0.12473908 0.002309614 -0.26799092 -0.6694353 -0.33302525 0.08744537 0.335967 0.5994205 0.47331378 0.2208349 -0.47684392 0.32038087 -0.31104997 0.7899867 0.78151494 0.35239506 -0.28753802 -0.5460431 -0.0029507563 0.054098733 -0.5835036 -0.25942045 0.29907623 0.18869995 0.30983028 -0.25156406 -0.33876103 -0.056074418 -0.1467935 -0.093818106 -0.020611597 0.544915 0.27674657 0.6653423 -0.15301022 -0.22867656 0.14028914 -0.14909475 0.42954567 0.013702402 0.2694188 0.30508217 0.07227321 -0.7919747 0.53011036 -0.34967077 -0.7167732 -0.04722226 0.4012351 0.46167624 0.2810917 0.79970795 -0.104345575 -0.45926747 0.22301376 0.20243797 0.063426085 0.33713314 -0.2942495 0.66574025 -0.25233373 0.3586009 -0.346369 0.54617035 0.26688957 0.4341416 0.3042724 0.03835006 -0.43678543 0.22909123 0.62767625 0.077264614 -0.21988878 -0.31944636 -0.6806419 -0.34578124 -0.8591888 -0.51058143 -0.15352513 -0.52907073 -0.48550797 -0.60851765 -0.053091794 -0.3342086 0.48410878 0.07963532 -0.12643573 -0.031079514 0.4614937 0.49884543 -0.42104155 -0.21895319 0.0787265 0.5326067 0.35501152 0.33123684 0.33442813 -0.06225852 0.038072016 0.60390264 0.7059538 0.2698419 0.5213427 0.40968493 -0.27708378 -0.70227325 -0.62569493 -0.21725184 0.25726905 -0.10567631 -0.4167644 0.87429416 0.34828743 0.364109 -0.14035393 -0.506557 -0.067263216 0.2162229 -0.70122606 0.2789245 0.48431998 -0.28297445 -0.05873579 0.42492893 0.72131497 0.077840574 0.7029257 -0.13850155 -0.030876031 -0.09715336 0.4970723 0.14843588 -0.057875726 0.11469087 0.25219616 0.30295727 -0.3409103 -0.0673519 0.47096992 -0.56917804 -0.65063286 -0.124492034 -0.25538373 0.4334416 -0.05413286 -0.48618355 0.30365932 0.080570586 -0.044897575 0.13616091 0.08209875 0.002508782 -0.04199615 -0.12886852 0.15369026 -0.102067985 0.04563285 -0.32376906 -0.64797246 -0.49431628 0.1835541 -0.19529448 0.3949174 -0.09811875
動物 0.14032006 -0.04837231 0.017282715 0.28886032 0.6581549 -0.5393635 0.09579406 0.6920221 -0.25610074 -0.20578292 -0.57331115 -0.05629359 0.1688449 0.280744 -0.06828472 0.042455535 -0.113907665 -0.65717304 -0.24738044 -0.20264281 0.031717256 0.55154115 -0.1766922 -0.1212897 -0.025611976 0.25389647 -0.14495146 -0.037425324 0.40459177 -0.107295334 0.4650327 -0.08289151 0.53932875 0.08258944 -0.35724944 -0.03728813 -0.003024393 0.42202553 0.24752896 -0.5778782 0.7313264 -0.51651824 0.14997402 0.71129173 0.3589646 -0.22660822 -0.22918583 -0.2005186 -0.13565458 0.5759343 -0.5650317 0.45454094 0.3244949 0.21265796 -0.69223416 -0.59151965 -0.34530443 -0.4689731 -0.5260481 -0.1422481 0.31364352 0.44831002 -0.25487253 0.404312 -0.33337805 -0.15402141 0.112581775 0.73145765 -0.42345878 -0.30788273 -0.23220153 0.6835397 0.51650155 0.51244473 0.3699073 -0.019967778 0.026960466 -0.48391014 -0.77759296 0.49464005 0.12803961 -0.011138794 0.09833717 0.09048602 0.4083589 0.16492108 0.4057609 0.008353664 -0.14426294 -0.4874328 -0.46867633 -0.06077704 1.0117348 0.44382992 0.71832305 0.3503113 0.032103643 0.3243152 0.011754119 0.754415 -0.24108823 0.4349013 -0.2556187 0.16235782 -0.4946962 -0.27335283 0.3162058 -0.37913397 -0.34983718 -0.55248743 0.22062959 -0.78497267 -0.2529765 -0.49192885 -0.34938177 -0.59403104 0.2265407 -0.4488148 0.44375426 0.026349101 -0.18714768 -0.3510281 0.38921458 -0.71234965 -0.2976266 -0.3911336 0.34678265 -0.31767344 -0.06228498 0.25696164 0.08189401 -0.84248656 0.35063437 -0.088220805 0.41496253 -0.41653973 -0.74771285 -0.2179688 0.28049842 -0.21710652 0.4531585 -0.47388533 0.029407008 -0.26821598 -0.45927387 -0.097652346 -0.16319858 -0.5582374 0.4160812 0.3246445 -0.23773234 0.18613377 -0.41860667 -0.25982574 0.19338301 0.543782 -0.055441003 -0.28947848 0.19877133 0.25973237 0.024124037 0.053165626 -0.61375135 -0.06171976 0.28847367 -0.020701796 0.3707615 -0.0964272 -0.008735509 0.2933469 0.2749916 -0.12776871 0.5873545 0.40244815 0.025423968 -0.24231823 -0.68504536 0.22996002 -0.6984253 0.1927218 0.18772031 0.2384664 0.19875336 0.4258904 0.22853401 -0.1749949 -0.53131825 -0.10259098 0.5870453 -0.42170975 0.031279508 -0.017719736 -0.7276663 0.49824393 -0.067875825 0.1357115 0.14753696 -0.38831672 0.085367456 -0.46067417
雰囲気 -0.03164142 -0.45275265 -0.7191729 0.31622148 0.27458405 -0.5315062 -0.18960352 0.8576028 -0.44391286 0.19449449 -0.09880423 -0.80493283 -0.546068 0.48864642 0.4430683 0.07898903 0.32781607 0.30464387 -0.55417246 0.16630033 0.07762685 -0.47286853 -1.1441861 -0.032445803 -0.03831659 0.3075407 -1.2359834 0.115086034 0.087841146 0.13251278 -0.68484026 0.22773689 0.028509028 -0.1978689 -0.43119952 -0.30450523 -0.17047107 -0.40226915 -0.51390153 -0.37937513 -0.6251683 0.002598666 0.2061685 0.17128024 0.45557135 0.16779326 0.53305143 -0.30506918 0.007000348 0.6069566 0.8583101 -0.8050545 0.16515933 -0.005307584 -0.7051267 -0.38732713 0.055593584 -0.26689094 0.13738503 0.62848425 0.5376651 -0.14714544 -0.0089051835 -0.7353962 0.123720855 0.42388645 -0.5021473 0.22377552 0.24128483 0.067212135 -0.49740028 -0.35368976 0.20202444 0.14425506 0.1934707 -0.46466112 0.11546655 0.33878753 -0.13066754 -0.52371854 -0.06177985 0.019109968 -0.37565067 0.008895288 -0.19663629 -0.08603622 0.5864717 0.069251664 0.015560665 -0.012945656 0.4566943 -0.433203 -0.068505555 0.36968186 0.13105175 0.40047702 0.34550676 0.095916145 0.16618015 0.28563616 -0.35609365 -0.05340662 0.48877025 0.14835113 -0.5266268 -0.3822154 -0.25433382 -0.009388243 -0.06519912 -0.83942384 -0.07549802 -0.1586927 -0.37513033 0.20998849 -0.37399364 -0.109528914 -0.21022162 -0.15677443 -0.22178277 -0.00043427764 -0.49410853 -0.48759666 0.017298866 0.056918457 0.10569534 0.82806 -1.0405126 0.5623234 -0.17051837 -0.7153457 -0.38178018 0.110994525 -0.48644266 0.2954367 0.72996926 0.4394946 -0.08119316 -0.5991605 -0.3222349 -0.4293774 -0.07696266 -0.38866535 0.53106004 0.067318365 -0.06124994 -0.63656473 -0.26596895 0.20537977 0.11710351 0.47492468 -0.2346869 -0.48646933 -0.009643684 -0.3192839 0.19458634 -0.55033743 0.36334652 -0.28586423 -0.044226125 -0.34348637 0.47069404 0.68707955 0.059319 0.66269195 -0.1434538 0.6139574 0.4497708 -0.06192668 0.2004015 0.35372043 -0.44272128 0.32975867 -0.25415477 0.58696723 0.46622413 0.38013276 -1.0523953 -0.16786034 0.6006326 0.12485428 0.04488551 0.2898048 0.56219107 -0.3862006 -0.4234625 0.1791657 0.21091594 0.46085572 0.33331785 0.21291238 -0.073292494 0.9616715 0.22542255 -0.2772128 0.3494119 0.2929394 -0.16074865 -0.020225767 -0.5048428 -0.18387328
家族 -0.5055249 0.04460857 -0.577955 -0.03947906 0.52212906 -0.4694905 -0.9085021 0.4272319 -0.2072144 -0.34556034 -0.13314202 -0.043114208 0.07014558 -0.2324738 -0.4853726 0.043559965 0.79193425 -0.78590363 0.013105292 -0.35975248 -0.5922749 0.47742775 0.23656408 -0.7947695 -0.50352573 0.045203675 -0.9490808 -0.35569224 0.06447048 0.462607 0.36716563 -0.28111753 -0.27581587 -0.63938713 0.33094215 -0.047692962 -0.6192259 -0.5146887 0.4893312 -0.8554485 0.519092 0.6867205 0.061372492 -0.48820212 0.23581205 -0.047219485 0.34485018 -0.3747433 -0.051584717 -0.80672175 0.03735442 -0.34876952 -0.39746872 0.049029727 0.221828 0.18403612 -0.92276204 -0.1921618 0.15650162 0.36496598 -0.10090417 -0.14467852 0.75512874 0.17675562 -0.45858538 0.2688628 0.3695306 0.38936666 -0.06496481 0.49229923 0.063474245 0.24133363 -0.3727215 -0.03246347 -0.4616931 0.25824577 -0.35306785 -0.14572951 -0.11266235 -0.60245335 -0.6188778 0.08846977 -0.6406188 0.51313096 -0.3223693 -0.40976015 0.1925487 -0.0112760505 -0.067401245 0.43477562 -0.29020816 0.11474408 0.41716468 0.696869 0.3016889 -0.027469033 -0.20062128 0.09315367 0.26566106 0.21467885 0.67346627 0.089345835 -0.46921492 -0.20988353 0.13985924 -0.672049 0.264269 0.055475168 -0.16143933 0.29992485 -0.016440477 -0.5187646 -0.06534663 -0.33199194 0.39691642 0.21074125 0.35543102 -0.36000246 -0.3589762 0.20562252 -0.5859791 0.65384096 0.21113285 0.10865377 0.16697188 0.7584491 0.015069538 -0.2195598 -0.3865664 0.5207283 0.05189848 -0.22962977 -0.08770936 -0.3031711 0.29874778 0.62624353 0.01617942 0.11593134 -0.26669985 -0.78338134 0.5719915 -0.2726406 -0.6516369 0.49856964 -0.052506946 0.51931876 -0.76492774 -0.37318105 0.42842805 -0.041096576 0.286301 -0.5072597 -0.03265513 0.36268136 -0.40721142 0.12164258 0.15808149 0.06878968 -0.36324674 -0.22069444 -0.37371397 0.83744776 -0.263725 -0.0427512 0.0018561454 0.6195516 0.3991598 0.38955948 -0.18479215 0.31624565 -0.28754875 -0.2972954 0.054779306 0.30765432 0.027292246 -0.13810453 -0.003907636 0.32598436 0.7428024 0.15576641 -0.13751239 -0.33229873 0.272855 -0.93007034 -0.63052624 0.16158895 0.17641953 0.5875928 0.5905708 0.42568094 0.4727124 -0.16853447 -0.05568566 0.07087336 0.17933604 -0.01113169 -0.30567953 -0.49219796 0.33211997 0.16779722
スタッフ 0.0030355998 0.07570321 1.0203713 -0.5803776 0.1606858 -0.44263786 0.43016684 -0.95357645 -0.35941824 -0.008623931 -0.041375734 -0.10157945 -0.06425443 -0.44861624 0.1345021 0.044265293 -0.123384096 0.13925627 -0.39133057 -0.64551985 0.87411165 -0.13670129 0.1697756 0.07158888 -0.42034107 -0.50167966 -0.21122949 0.13417473 -0.42727652 -0.36665565 0.4041759 0.31717202 -0.075177394 -0.1792024 -0.66906047 0.14070754 -0.064700164 0.29895517 -0.30754328 -0.039809655 0.42210504 -0.024083441 -0.17795803 0.43173134 1.0947739 0.055419143 0.40923682 -0.6042961 -0.13007209 0.58553016 0.27234408 -0.581238 0.12862177 -0.49984902 -0.018092928 -0.45724732 0.109933086 0.012427079 -0.75155234 -0.5271249 -0.064497925 -0.17285822 0.3697013 -0.26378348 0.26140445 -0.11325185 0.6570858 0.2744975 -0.6434616 -0.35456735 0.18208772 -0.31403306 0.5862124 -0.44050485 0.34512326 0.13266304 0.2516911 0.31597066 -0.17873491 0.10941554 -0.43598852 -0.47229162 -0.38988417 0.38485393 -0.41842166 0.30518982 -0.07837107 0.24602617 -0.07240152 0.34124523 -0.13789602 0.38332558 0.5429328 0.02896125 0.34855285 -0.45199648 -0.3740907 0.07853654 0.23999877 0.44002149 -0.4918998 0.038435254 -0.09973496 -0.6738041 -0.6385865 0.22977477 0.04257593 0.22024342 -0.38546807 -0.08656372 0.068343915 0.5654717 0.32383874 -0.43497652 -0.43951872 -0.22832137 0.22939189 -0.057000864 -0.0148836095 -0.3388463 -0.26072717 0.086242884 -0.32940644 -0.4092743 -0.15602776 0.43551177 -0.233375 0.43691674 0.025944363 -0.1300907 -0.8157875 0.46757138 -0.1585995 0.26416942 -0.28479463 0.29292607 -0.37244266 -0.1100781 0.2763882 -0.047949877 0.39370576 -1.0323377 0.47626027 -0.17864491 0.50206506 0.367216 -0.3992043 0.39577952 -0.54835826 0.28329337 0.24603587 -0.2813535 0.08790857 0.17707193 -0.3482092 0.3564558 0.1777213 0.6673328 -0.07371217 -0.19998355 -0.22695424 -0.20713232 -0.29707924 -0.2222224 0.59084755 0.8085285 0.29086393 0.57356524 -0.57118905 0.051727027 0.7075588 0.386824 0.414286 0.028493484 0.78468615 0.12817535 -0.016859753 -0.2614676 0.39519018 -0.35101214 -0.4766734 0.17877921 0.17856544 0.1868488 0.18836524 0.5606636 -0.18430024 0.61546516 0.2753351 -0.16601908 0.28340033 0.117535494 -0.5896197 0.25393447 0.03092776 0.82520914 0.16230902 -0.7185447 -0.082305014 0.62612516
景色 0.2147929 0.4967414 0.28062412 0.5624565 0.4003165 0.36442143 -0.13626766 0.50051975 0.08003234 0.5233361 -0.36446124 0.11068431 -0.28360572 0.14617488 0.43991545 0.059724458 -0.31429276 0.67854184 0.34963912 0.04998438 0.18699855 0.5195774 -0.72543544 0.39640078 -0.010321599 -0.17040814 -0.29810572 -0.20001821 0.18106778 0.7799047 -0.069388784 0.49356002 0.06997877 -0.53099144 -0.1564313 0.27187023 0.46378896 0.043807384 0.015855236 -0.04695258 -0.24261896 -0.31242913 -0.039781287 0.070791245 -0.16790573 0.188501 -0.5172534 0.643979 0.2769 -0.16854326 -0.21630733 0.4780105 0.18723086 -0.015635302 0.38253382 -0.60792 -0.33574465 0.111471996 -0.26988122 0.2763933 -0.27902365 -0.12653697 0.66411465 -0.4471532 -0.10797252 0.10292865 -0.13955727 -0.026257789 -0.0459251 0.25463974 1.1487327 0.049498975 0.36969203 0.095950805 0.33446786 -0.08035464 0.09350003 -0.19125968 -0.3622802 -1.0345693 -0.3811186 -0.33281845 0.08766016 -0.39732173 0.06958558 0.040966846 0.28838953 0.48587626 0.3473712 0.080504924 0.25673977 0.19164664 -0.44388065 0.6111469 0.4034171 0.32105345 0.44106093 -0.34551316 0.118998736 -0.2148531 -0.13737647 0.27302268 0.8539373 0.29171473 -0.007999284 0.16887084 0.17462845 0.44472075 0.13671081 0.4616964 -0.40346056 -0.39033678 -0.9976918 -0.2728105 0.29842672 0.30112836 0.39528763 -0.38922435 -0.16924779 -0.6046864 0.44213027 0.4494614 0.67397124 0.211855 -0.44503692 0.5450373 0.5731366 0.45853245 -0.16828339 -0.23368366 0.50534433 -0.21023324 0.11436248 0.20378864 0.25483757 0.64746267 0.39306474 -0.42774987 0.34418473 -0.53314966 0.42235935 -0.14167011 0.064087965 0.40148032 0.36360803 0.48624834 0.05204923 -0.80417645 0.46293044 -0.7096536 0.27191508 1.0467525 -0.1344973 0.16207696 -0.54403645 0.463404 0.008380527 0.21662872 0.362797 0.55357707 -0.037490375 0.2387857 -0.6346336 0.15262239 -0.3670773 0.45084342 -0.007222235 0.4900638 0.17117105 0.52604055 -0.68893385 -0.10609466 -0.38044143 0.09117148 -0.03282216 0.2465132 -0.17580086 0.05131739 0.001651262 0.32271227 0.10895847 0.08667567 0.35209844 -0.09559944 0.7615148 0.37976637 -0.29125535 0.40053302 0.18587202 -0.2133235 1.2124412 -0.46321946 -0.7834469 -0.054678038 0.84643346 0.24519973 0.18523258 0.0032345913 0.349674 -0.3461066
屋台 0.3414482 0.507431 -0.10352636 0.12167463 0.4067788 0.013210866 0.31126025 1.0466915 0.1651586 0.17036748 -0.028265186 0.6088722 -0.37989405 -0.08869558 -0.4608968 -0.4199072 0.3433699 -0.40912825 -0.043441743 -0.23182864 0.6969173 0.3227377 -0.34532392 0.13126816 0.4090776 -0.8101415 -0.4047268 -0.1457284 -0.2100294 0.058144126 0.06554171 -0.021641763 -0.42900163 0.11260117 0.045055956 0.42435125 0.80341375 0.0757735 0.2608672 -0.1318306 -0.23664549 0.14657657 0.69802237 -0.19777508 0.5050983 0.087933995 -0.2717938 0.32749513 0.69401735 0.12725352 -0.13498883 -0.1491548 0.017421514 -0.17682485 -0.06809302 -0.608402 0.42125225 -0.64770764 0.10491348 0.067200705 -0.07895873 0.6868447 0.24719194 -0.9374911 -0.074537285 0.07266156 0.13083082 0.33592406 0.13297588 -0.23074839 -0.26513702 -0.8231855 -0.09405088 0.3339392 0.114404224 0.087013766 0.0876622 0.18783438 -1.0499246 -0.1566427 0.14449412 0.49756384 -0.116563566 0.3668093 0.679553 0.15999174 0.26394612 -0.34422496 0.061612923 0.5598252 0.38554275 0.28650695 -0.057160225 0.4838851 0.38275784 0.58541644 0.33416626 -0.56199235 0.5252538 -0.45934835 -0.46901438 0.48808637 0.04467535 -0.25355107 -0.34169593 -0.9797205 -0.09430128 -0.07940058 -0.051012352 -0.12760447 -0.023656888 -0.31758276 -0.54586583 -0.583927 0.55709153 -0.19021206 -0.24324606 0.26294816 -0.10569082 0.62777245 -0.0045100558 0.18950257 0.6403161 0.5008184 0.5950257 0.050716184 -0.2785056 -0.2674633 0.76323324 -0.024107672 0.06535461 0.4508058 0.014837449 -0.15236789 -0.59155506 0.41785786 -0.04323514 0.1934842 -0.50987124 -0.59580755 0.48492438 -0.14547886 -0.008682809 -0.64908785 -0.24838398 0.19831283 -0.6666936 -0.010605991 -0.09924592 0.2533633 -0.089105204 -0.034746937 -0.57641727 0.038812693 -0.8183516 -0.07285087 -0.6698988 -0.41356483 -0.0027951887 0.12090616 0.88837856 0.93448585 -0.62088746 -0.33715844 -0.16633546 0.5337724 0.23736489 -0.0589711 -0.28653935 0.35613772 -0.35723054 0.8524798 0.14557853 -0.15866005 -0.44706693 0.32152718 -0.55866385 -0.09418514 -0.18408403 -0.4748248 0.26613918 -0.26939803 -0.5448714 0.52959996 -0.50159305 0.69662446 -0.36782187 -0.11735248 0.62493 0.1985472 0.87565887 -0.054390807 -0.31642663 0.48240966 0.5257477 -0.15804763 0.6301803 0.056819707 -0.31107286 -0.4735078
美味しかっ 0.048996262 -0.5474731 0.30624664 0.23583151 0.6508747 -0.36673403 -0.3180096 0.9361898 0.12574784 0.36131948 -0.23030448 0.08118698 -0.030342609 0.5411216 0.36678883 -0.38997328 0.22469766 -0.5280272 0.5880474 0.07612939 0.38818783 0.59460276 0.18400174 -0.45053235 -0.32879978 0.26202527 -0.1987236 -0.014891133 -0.5512293 0.30588472 -0.056379598 -0.5073602 0.1086779 -0.21833934 -0.42543918 0.32171255 -0.24300599 0.209592 -0.53524303 0.21014869 0.22911683 0.07880725 0.74075127 -0.2632095 -0.12876236 0.037559148 0.11289936 0.35246536 0.7661837 -0.31491622 -0.20803657 -0.29913348 -0.29052037 0.43613625 0.1568184 0.2797493 0.42288634 -0.81623334 -0.14053571 0.34270662 -0.41671717 -0.20637119 0.07300376 -0.20648447 -0.2994965 0.34005448 0.41277155 -0.49897262 -0.13612933 -0.28301942 -0.08130716 0.13356568 -0.10841595 0.47631004 0.2016614 0.41542813 0.6336128 -0.27047506 -0.8416081 0.08768969 0.4939193 -0.53159666 -0.013485398 0.57425225 -0.15307146 -0.26696774 -0.43899593 0.74615264 0.05941471 0.63973725 -0.1333795 0.40271863 0.006527099 0.27215973 0.3287281 0.7865572 -0.29053348 0.5063574 -0.3770035 0.32777813 -1.0228697 0.30232632 0.15103634 -0.06964883 0.17055407 -0.81659156 -0.072683744 0.56007385 0.044795632 -0.21619403 0.06251564 0.05259963 0.026608955 -0.8241614 0.14330298 -0.0026384727 0.18473847 -0.3858355 -0.039330244 -0.63660973 0.12155588 -0.103495724 -0.109747805 -0.4257635 0.61031026 -0.050065894 -0.3970581 -0.15060954 -0.15798917 -0.9112079 -0.80028725 0.014428873 -0.5192544 0.23622473 0.17591588 0.2856118 -0.2169387 -0.3780123 -0.122974284 -0.38594183 0.06752305 -0.30989617 -0.050026692 -0.2879992 0.08857544 -0.22506714 -0.21264713 -0.39226434 -0.07245634 0.38569823 -0.8329902 0.059177447 -0.16876002 0.15499158 0.09380681 0.37249842 -0.4291292 0.080779195 0.042315077 0.47626865 0.8649801 -0.008221118 -0.21392891 -0.6734832 0.05545441 0.5416169 -0.7205356 -0.77114135 0.015760675 -0.3145821 0.1078181 0.008224926 0.4582811 -0.13694577 -0.3281035 -0.078618616 0.100043856 -0.8432366 0.33569762 0.2359597 -0.24629782 -0.55474305 -0.45417798 -0.29884443 -0.1354203 0.34613457 0.24015734 0.5013878 0.5057497 -0.5023667 0.27305144 -0.50468624 -0.2131844 0.35751423 0.40022415 -0.52774125 0.01864146 -0.22622126 -0.6285853 0.23566274
対応 -0.749753 0.5966044 -0.44268692 -0.20634484 0.31824845 -0.036853634 0.03720255 -0.21765949 -0.6206236 0.37956184 -0.42947242 -0.15615264 0.04184799 -0.0055955388 0.35732952 0.43415844 0.454972 -0.25366408 -0.7005097 -0.072082005 0.2808553 -0.5210658 -0.0058803093 0.13067245 -0.57515746 -0.25907767 -0.20750695 -0.20619112 0.16002542 -0.12569004 0.037274975 -0.42065427 -0.2657145 -0.26958224 -0.53466505 -0.07742491 0.2685048 -0.4113661 -0.34977618 -0.52273494 -0.010146492 0.043856386 -0.31268725 0.009476051 -0.34252435 0.26450726 -0.37691313 -1.1619539 0.21580826 0.028104408 -0.6538319 0.06158011 0.065253474 -0.6230773 0.12883158 0.40488833 0.33589303 -0.15949017 -0.28069252 0.057852488 -0.23304135 -0.29575235 0.25404918 -0.29863378 -0.41067818 -0.061451815 0.17008372 -0.2190216 0.053373493 0.11280091 -0.19684537 -0.84175533 0.4385611 -0.28272483 -0.10258835 -0.27251607 0.74293 0.09053305 -0.5175292 0.020938512 -0.3894967 -0.37497658 -0.6560896 0.22290434 -0.65623504 -0.31347325 -0.075626455 0.11751314 -0.31425023 -0.7943523 -0.30753297 0.13809867 0.2565957 -0.3014357 0.58357126 -0.3996993 -0.5170039 -0.10218051 -0.086239986 0.28481168 -0.08362136 0.46551254 0.1986653 -0.17693962 -0.3619466 -0.6748307 0.6321319 0.10413376 -0.14235014 -0.16245107 0.35685515 -0.008484643 -0.1712653 0.28802535 -0.07804525 0.05425654 0.25634074 -0.32424414 -0.18943243 -0.63968104 -0.4268343 0.35390222 -0.08009511 -0.6285691 0.3497075 -0.166405 -0.029911347 0.4817637 -0.39806107 0.64351535 0.32711583 -0.051067725 0.08522501 0.32143283 -0.25578994 0.006998093 0.12071728 -0.21115768 0.49171764 -0.41646153 1.0538621 -0.45142195 0.6709252 -0.1744942 0.8733255 0.2931204 -0.6021255 0.11756773 0.025689838 -0.14998747 -0.08786139 0.071342 -0.16998889 0.20577599 -0.34690043 0.17781109 -0.2050765 0.31830668 -0.27795565 0.009937253 0.7909725 -0.8721931 -0.0062276213 -0.17740309 0.29408827 0.09903604 -0.052739445 -0.22375911 -0.3809408 0.12465142 0.33257994 0.5750147 0.24614461 -0.6233866 0.1593442 0.26574886 -0.2448169 -0.21606687 0.26464048 0.4221184 -0.26224798 -0.017542237 0.09793337 0.15670285 -0.0533631 0.5704572 -0.47935444 1.2383885 0.44952282 0.13383141 0.6434912 -0.0078297565 -0.4039793 0.49178344 0.26023445 0.46175313 0.26977292 -0.30740052 -0.40162098 0.46751976
今回 0.2630795 1.1241294 -0.6580497 -0.5895313 0.9100051 -0.011861656 -0.6051815 -0.22615841 0.32536343 -0.041831832 0.18280758 -0.057228524 0.87513685 0.7613674 -0.38678896 -0.1999802 -1.1251163 -0.10154061 -0.30476153 -0.05516534 -0.048321348 0.8179319 -0.09268742 0.21464518 -0.03693888 0.14633374 0.03620873 -0.7350574 -0.27354783 0.48820066 0.020955268 -0.27329823 0.33383474 -0.6216595 -0.30668977 0.26386964 0.3771822 -0.11120348 0.015187708 -0.31653956 -0.34701115 0.5224511 -0.3393959 0.0027636108 0.4254209 0.0538824 0.260804 -0.03346401 0.5639 -0.17662303 0.48508567 -0.6854062 0.24563406 0.4787493 -0.12332553 -0.47861928 -0.39612842 0.037784375 0.12912096 -0.118835896 -0.3322251 -0.18574487 -0.39608032 -0.22298735 -0.32105544 0.05274773 0.049486898 -0.17220758 -0.15625346 -0.9225607 -0.42330906 0.24691905 0.63946456 -0.38922817 -0.026759485 0.33890313 -0.12139061 -0.072187334 -0.33189982 -0.29829627 0.65614754 -0.3305841 -0.74134284 0.5918841 -0.39348754 -0.21150267 -0.15903646 0.02070153 0.6965094 0.81221044 -0.28979966 0.18688837 0.39163926 -0.41083223 0.54023397 0.08830259 0.012440177 0.24663337 -0.14958605 -0.45777085 -0.6724005 0.32882544 0.16553627 0.5442553 -0.11999673 0.36443865 0.46480528 -0.38402373 0.26127484 0.634808 -0.10840722 -0.0778641 -0.21338068 -0.2815628 -0.25786087 0.55747867 -0.23697995 -0.6275219 0.25375 -0.36731112 -0.19564235 0.49313638 0.30857423 -0.21729401 -0.009473246 0.0900013 -0.17203878 -0.39243022 -0.22769636 -0.12655547 -0.49142057 -0.09860966 0.32813177 0.46788597 -0.6084311 0.02373139 -0.97581387 -0.6427732 0.07378159 -0.29972664 0.8205046 0.06430674 0.44490272 -0.15971938 -0.19093764 0.027744409 -0.034232862 0.44327807 -0.30566615 0.07249179 0.6021061 -0.38882515 -0.27968624 -0.18345673 0.039329547 0.6033799 0.53121305 0.40259588 -0.7682709 0.3843624 0.5264681 0.18534446 -0.5096516 -0.012932146 0.23377912 -0.31743005 0.1689095 0.3029045 -0.79962957 -0.52566445 0.110905886 -0.076654725 0.1601347 0.20906681 0.63122195 1.1140915 -0.1593461 -0.39260572 0.66040885 0.26012194 -0.24338762 -0.2054712 -0.1164952 0.20355815 0.4093432 0.14161816 0.028816884 0.09270322 0.041298788 -0.1585719 0.35068253 0.24435875 0.23112081 -0.2780651 -0.20675641 -0.5607213 0.022461554 -0.112016685 0.23549293 -0.48406476
気持ち 0.8877866 -0.024561554 -0.015007628 -0.38976088 0.2879077 0.10714153 0.11264952 0.7013668 -0.119550504 -0.24264587 -0.2835465 -0.5790572 0.09849797 0.6050476 0.4178795 0.3222234 -0.107999265 0.35269046 -0.075528905 0.82298833 -0.52324355 -0.45158556 0.29167882 -0.055873007 -0.37315655 0.50332284 0.4863741 -0.65494287 -0.42004463 0.24698111 0.089410886 -0.11026558 0.37256822 0.119756594 0.06309497 -0.0510054 0.58932763 -0.32076597 0.05341621 0.28179926 -0.63252485 0.50096625 0.02153137 -0.89117026 -0.21517372 -0.053948607 0.5056257 0.19202049 0.16392429 0.12826788 -0.43409827 -0.36044657 0.3985469 -0.10751418 0.26316318 -0.4263611 0.4059867 -0.89099205 0.20653334 -0.27606398 -0.60118914 -0.3568707 0.06418414 -0.71071726 -0.2809357 -0.25263363 -0.36244705 -0.3078813 -0.20686066 0.7170942 0.0072832904 -0.6521248 0.11325282 -0.16288434 -0.2023952 0.19953519 -0.5358945 0.0343542 -0.17092113 -0.19875215 0.49661952 -0.6410789 -0.33676976 0.51234806 -0.53173447 -0.53849024 0.06564993 -0.14346921 -0.18588114 0.32850945 -0.019682908 -0.191831 0.5882295 0.6344906 0.6263192 -0.73373365 -0.019171713 -0.5100209 -0.6497233 0.28179005 0.07356913 0.06244044 -0.4277723 -0.15649012 -0.27248135 -0.28549817 -0.06483497 0.29855257 0.4225511 0.24045517 0.03194515 0.10745757 0.21838914 0.5367268 0.5726138 -0.4752603 -0.009285194 -0.18054499 0.51601845 -0.10701727 0.52188253 -0.15866968 -0.8866373 -0.121331245 -0.17851153 0.24386707 -0.54444396 0.12313255 -0.02293701 0.03416986 -0.38196495 -0.23455422 -0.6215932 -0.37128574 0.55718815 -0.30947563 0.014577134 -0.42008787 -0.42523652 -0.7991193 -0.6097826 -0.24119636 -0.7190005 0.3333095 0.2713568 0.26184005 -0.06508331 0.3712222 0.13318788 0.4995333 -0.03159001 0.13556232 0.26968637 -0.26111466 -0.66067064 0.36586976 0.26453075 0.5418629 -0.26296487 0.6707644 0.32151872 -0.17680599 -0.39349622 -0.45858166 0.022475235 0.5781321 0.75210696 0.50457567 -0.20276421 0.52546513 -0.029821033 0.17592701 0.30477402 0.20040652 0.09125475 -0.005645298 -0.5464462 0.4327049 -0.16745785 0.17459115 0.24853645 0.8404484 0.19276837 -0.051350854 0.27907562 0.37548018 -0.52330625 -0.89627755 0.7173974 -0.079068616 0.81596714 0.28504297 -0.5075789 0.08521292 0.0005539899 0.9724642 0.54911083 0.15003078 -0.17845914 -0.39883167
バス 0.26991457 -0.14210963 0.37507516 0.35462254 0.5876485 0.020510824 0.24911445 -0.025066402 -0.83460695 -0.27207682 0.0683786 -0.0100013595 0.2731285 -0.09610686 -0.030541888 0.22751886 -0.013757989 0.26939896 0.23828554 0.38926807 0.05293925 -0.2677191 -0.11454761 0.34865922 -0.30080372 -0.24731185 0.25881305 -0.72296035 0.10095492 0.37395898 -0.5736405 -0.12101162 0.18036342 -0.55181456 0.44960028 0.6000848 0.19155702 0.16325717 -0.22022599 -0.1993499 -0.65471125 0.04813954 -0.084401794 0.60026664 0.40653175 -0.13970749 0.013993042 0.37109187 0.35914466 -0.71481633 -0.3081958 0.24593705 0.13419288 -0.34760487 -0.36863548 -0.7735156 -0.43597865 -0.69071585 -0.4081967 0.23115705 -0.034767814 0.19455779 -0.4756545 -1.0078781 -0.16354683 0.063854225 0.006746359 0.42815742 -0.12396297 0.7134366 -0.47248903 -0.19888863 0.012605769 -0.278331 0.075941205 0.33052713 -0.03378568 -0.4602415 -0.9155448 0.75931716 0.18472828 -0.29032078 -0.3782663 -0.3107888 0.02545907 -0.5575314 -0.061430752 0.65465784 0.9522575 0.029145334 -0.44121036 0.4277489 -0.23991412 0.61580855 0.41972387 -0.422395 -0.20241058 0.4806964 0.030945785 0.43845505 -0.7881875 0.80056137 0.015647631 0.011614102 -0.08329496 0.07097319 -0.17441046 0.3265806 0.61163515 -0.3072153 -0.27685744 -0.43761462 -0.07592176 0.09952656 -0.15871553 -0.66759825 0.2500186 0.42608044 -0.048323445 -0.2922068 0.6434321 0.4971259 -0.6421035 -0.9006828 0.006624331 -0.623767 -0.18106218 -0.06473719 -0.48221865 0.06744496 -0.21125187 -0.3203536 -0.059014432 -0.57547355 0.0515103 -0.025319569 -0.56482863 -0.14733373 0.4747978 0.0925832 -0.032781202 0.29721177 0.43477035 0.109975204 -0.46017805 -0.52438104 -0.12276069 -0.34558925 0.14724773 0.34254345 0.4442121 0.01576019 0.9036348 0.19556887 -0.14889695 0.34903625 0.045338348 -0.14157292 -0.34205285 -0.14981928 -0.1896687 0.37653646 0.0119331805 -1.0390737 -0.30913052 -0.13951501 -0.56457597 0.16389221 0.52935266 0.42008385 0.2976222 0.1455995 -0.2268663 -0.14370658 0.0068219984 0.84264743 -0.66994417 0.44686887 0.040316086 -0.45322123 -0.58793354 0.6574959 0.2319381 -0.58481747 -0.40814847 0.35552415 -0.73214877 0.35114563 0.58635724 0.29395512 0.77821887 0.5316763 -0.27610227 -0.9000864 0.17014608 0.5356242 -0.115324035 -0.006307598 0.03699033 0.032724548
美味しい -0.08307497 -0.20120074 0.5961098 0.026256284 0.10123713 -0.46068108 -0.43631166 -0.35114664 0.22584206 0.42350978 -0.9665838 -0.1915439 0.24047455 0.43445396 0.058968104 -0.67289114 0.43565974 -0.4749568 -0.5127536 -0.7681197 -0.14378005 -0.4140574 -0.026933588 0.23260692 0.08887117 -0.118414454 -0.24617608 -0.056427557 -0.94471985 0.12132086 -0.04043508 0.40487438 -0.015025135 -0.55601805 0.5241891 0.1833865 0.53819263 -0.1639385 -0.2557249 0.3722515 0.14140531 0.27801326 0.08057094 -0.4329658 0.5289098 -0.83773834 -0.19846389 -0.74408865 0.50475425 -0.43030924 -0.42490205 -0.19633682 0.010338404 0.9363909 -0.012346198 -0.619171 -0.07899972 -0.47549886 -0.8009967 0.47087395 0.080685176 -0.4872576 -0.10715533 -0.2735196 -0.13977042 0.17064446 0.34240222 0.45692742 -0.15178591 0.24747519 -0.12932606 -0.26624396 0.117836796 0.116604745 -0.90988827 0.42155823 0.4691133 -0.47387198 -0.15518865 0.5144717 -0.5964881 -0.12855585 0.0551146 -0.06286958 -0.10165274 -0.31257287 -0.31215265 0.30229178 0.4497133 0.044556476 -0.4121714 0.029614585 0.17323887 -0.27725035 0.3662194 0.29602948 0.12331525 0.31953356 0.5102542 0.3923008 -0.19799046 1.0687618 0.3292163 0.7615515 0.26128086 -0.2194012 -0.47999147 0.54627043 -0.3354725 0.20376672 -0.48308405 0.078762814 0.15227717 -0.06884729 -0.05695035 -0.71564037 -0.5765578 -0.30962598 0.11071255 -0.49526465 0.00930674 0.43728575 0.026391346 0.39998564 0.36609802 0.7222829 -0.406307 0.40443328 0.17547262 -0.24819782 0.04521286 0.7112599 0.16489726 0.561771 0.34183037 0.24082564 -0.15935346 -0.7189071 -0.09556378 -0.59823805 0.40951484 -0.28267553 -0.27170956 -0.49386102 0.2656126 -0.29631552 -0.15740353 -0.6101254 -0.061959423 -0.03981233 -0.019160084 -0.17902124 0.17832543 -0.05370455 0.11438634 -0.12317547 -0.51005226 0.67807657 0.3001869 -0.24841505 0.91490555 -0.048736222 0.42278722 -0.6380648 -0.06638354 0.020092336 0.65223485 -0.4190252 -0.050327826 0.60139173 -0.5014743 -0.49643457 0.24413718 -0.038212184 0.4529994 -0.20040978 0.027442198 0.1448396 0.015272129 0.21809119 0.43826452 -0.24182338 -0.03218621 0.19422315 -0.07988216 0.40798092 0.031835917 -0.040828355 0.90975106 0.0009619968 0.47570917 0.5196529 -0.50469726 -0.14861403 0.7122593 -0.20299672 0.117871255 -0.10358976 0.40028396 -0.4219129
